tree
version=v4
num_class=1
num_tree_per_iteration=1
label_index=0
max_feature_idx=153
objective=binary sigmoid:1
feature_names=numero_de_cliente foto_mes active_quarter cliente_vip internet cliente_edad cliente_antiguedad mrentabilidad mrentabilidad_annual mcomisiones mactivos_margen mpasivos_margen cproductos tcuentas ccuenta_corriente mcuenta_corriente_adicional mcuenta_corriente ccaja_ahorro mcaja_ahorro mcaja_ahorro_adicional mcaja_ahorro_dolares cdescubierto_preacordado mcuentas_saldo ctarjeta_debito ctarjeta_debito_transacciones mautoservicio ctarjeta_visa ctarjeta_visa_transacciones mtarjeta_visa_consumo ctarjeta_master ctarjeta_master_transacciones mtarjeta_master_consumo cprestamos_personales mprestamos_personales cprestamos_prendarios mprestamos_prendarios cprestamos_hipotecarios mprestamos_hipotecarios cplazo_fijo mplazo_fijo_dolares mplazo_fijo_pesos cinversion1 minversion1_pesos minversion1_dolares cinversion2 minversion2 cseguro_vida cseguro_auto cseguro_vivienda cseguro_accidentes_personales ccaja_seguridad cpayroll_trx mpayroll mpayroll2 cpayroll2_trx ccuenta_debitos_automaticos mcuenta_debitos_automaticos ctarjeta_visa_debitos_automaticos mttarjeta_visa_debitos_automaticos ctarjeta_master_debitos_automaticos mttarjeta_master_debitos_automaticos cpagodeservicios mpagodeservicios cpagomiscuentas mpagomiscuentas ccajeros_propios_descuentos mcajeros_propios_descuentos ctarjeta_visa_descuentos mtarjeta_visa_descuentos ctarjeta_master_descuentos mtarjeta_master_descuentos ccomisiones_mantenimiento mcomisiones_mantenimiento ccomisiones_otras mcomisiones_otras cforex cforex_buy mforex_buy cforex_sell mforex_sell ctransferencias_recibidas mtransferencias_recibidas ctransferencias_emitidas mtransferencias_emitidas cextraccion_autoservicio mextraccion_autoservicio ccheques_depositados mcheques_depositados ccheques_emitidos mcheques_emitidos ccheques_depositados_rechazados mcheques_depositados_rechazados ccheques_emitidos_rechazados mcheques_emitidos_rechazados tcallcenter ccallcenter_transacciones thomebanking chomebanking_transacciones ccajas_transacciones ccajas_consultas ccajas_depositos ccajas_extracciones ccajas_otras catm_trx matm catm_trx_other matm_other ctrx_quarter tmobile_app cmobile_app_trx Master_delinquency Master_status Master_mfinanciacion_limite Master_Fvencimiento Master_Finiciomora Master_msaldototal Master_msaldopesos Master_msaldodolares Master_mconsumospesos Master_mconsumosdolares Master_mlimitecompra Master_madelantopesos Master_madelantodolares Master_fultimo_cierre Master_mpagado Master_mpagospesos Master_mpagosdolares Master_fechaalta Master_mconsumototal Master_cconsumos Master_cadelantosefectivo Master_mpagominimo Visa_delinquency Visa_status Visa_mfinanciacion_limite Visa_Fvencimiento Visa_Finiciomora Visa_msaldototal Visa_msaldopesos Visa_msaldodolares Visa_mconsumospesos Visa_mconsumosdolares Visa_mlimitecompra Visa_madelantopesos Visa_madelantodolares Visa_fultimo_cierre Visa_mpagado Visa_mpagospesos Visa_mpagosdolares Visa_fechaalta Visa_mconsumototal Visa_cconsumos Visa_cadelantosefectivo Visa_mpagominimo
feature_infos=[249221323:1587194114] [202101:202102] [0:1] [0:1] [0:3] [19:101] [1:374] [-440340.5:625688.19999999995] [-4297824.0700000003:4319506.3399999999] [-214564.63:343691.62] [-211244.95000000001:228402.47] [-38549.089999999997:440344.62] [3:17] [1:2] [1:3] [-2717.3600000000001:15133869.75] [-2610299.1099999999:25135567.539999999] [2:10] [-4890.8900000000003:25425510.960000001] [-430.43000000000001:2001871.74] [-21005.5:139371612.5] [0:1] [-2610221.8100000001:139992084.34999999] [0:114] [0:172] [0:759395.73999999999] [0:3] [0:373] [0:3045138.5899999999] [0:3] [0:334] [0:2564181.1200000001] [0:494] [0:4232657.2999999998] [0:23] [0:17005345.559999999] [0:13] [0:19273915.93] [0:119] [0:58650000] [0:38827001.25] [0:12] [0:108904971.44] [0:58376150.350000001] [0:53] [0:263797425.84] [0:3] [0:5] [0:7] [0:2] [0:6] [0:63] [0:32795854.210000001] [0:2647948.96] [0:5] [0:72] [0:2406059.79] [0:93] [0:715814.13] [0:29] [0:645342.08999999997] [0:26] [0:8187540] [0:142] [0:20784075.309999999] [0:14] [0:19095.849999999999] [0:20] [0:38256.43] [0:29] [0:72654.949999999997] [0:34] [-11569.059999999999:12350.610000000001] [0:1618] [-214564.63:343691.62] [0:15] [0:15] [0:5887.3900000000003] [0:11] [0:3934.2399999999998] [0:567] [0:304930965.73000002] [0:223] [0:125587711.84999999] [0:112] [0:2727225] [0:119] [0:37478791.740000002] [0:193] [0:25580844.82] [0:16] [0:2313630.71] [0:8] [0:6287280] [0:1] [0:99] [0:1] [0:2749] [0:1] [0:34] [0:23] [0:18] [0:155] [0:112] [0:2727225] [0:51] [0:496800.03999999998] [0:2749] [0:1] [0:1] [0:1] [0:9] [0:203748005.49000001] [-2914237:4690] [-1:146] [-1256489.6000000001:5693571.5199999996] [-1654891.8300000001:3605774.3900000001] [-717560.20999999996:2474581.5800000001] [-34378.529999999999:2550252.1000000001] [0:27707.549999999999] [985.32000000000005:8896454.2799999993] [0:17595] [0:189.43000000000001] [-3:1726] [0:1228193.5] [-3915115.3500000001:133289.92000000001] [0:13849.809999999999] [3:7571] [-34378.529999999999:2550252.1000000001] [0:180] [0:13] [0:2627215.02] [0:1] [0:9] [0:203748005.49000001] [-2914237:5023] [0:147] [-555992.93999999994:2624240.3999999999] [-1197929.99:3077515.9399999999] [-722887.72999999998:1332085.8200000001] [-33255.68:2028784.2] [0:15095.040000000001] [1011.71:12633210] [0:110262] [0:1190.5899999999999] [-3:102] [0:1527147.97] [-3820821.7200000002:189297.48000000001] [0:14036.24] [3:12493] [-33255.68:2028784.2] [0:199] [0:21] [0:1950523.05]
tree_sizes=1640 2690 2277 2063 1633 1937 1856 2244 1871 1505 2373 2023 1116 1847 1413 1412 2029 1618 1983 1934 1502 2028 1703 2103 1979 1532 1520 1522 1958 1583 1506 1587 1497 2200 2040 1419 1514 1247 1326 1321 1959 1389 1203 1350 1436 1883 1760 1810 2015 1758 1348 1373 1957 1306 1928 1975 1456 2077 1844 1693 2174 2218 1600 1940 1851 1947 1037 2021 1464 1696 2082 2146 1943 2046 2027 1408 1918 2130 1324 1718 1536 1817 1698 1423 1529 1505 1434 1843 1759 1944 1437 1458 1586 1405 1513 1778 1536 1490 2521 1699 1725 1686 2015 2237 1711 1487 1895 1890 1227 1362 1583 1890 1607 1165 1922 1848 1458 1597 998 1445 2001 1227 1793 1678 1091 1949 1902 1673 1588 1173 1258 1610 1883 2109 1494 983 1586 2101 1514 1585 2019 1808 1622 1502 2214 1431 2333 1317 1608 2115 1302 1592 2121 1294 1536 1497 1541 1744 2322 1580 2059 1676 1395 1598 1921 2102 1400 1831 1914 1525 1500 1740 1844 1929 1056 1280 1528 1868 2110 1870 1545 1780 1658 1310 2103 1770 1574 2048 1278 1314 1623 1299 1660 1245 1803 1218 1513 1595 2015 1795 1791 2031 1604 1451 1511 1506 960 1684 1372 2047 2232 1644 1223 1647 1754 1296 1636 1431 1795 1606 1203 1367 1172 1144 1796 1372 1245 1513 1829 1683 1518 1843 1982 1522 1192 1465 888 1302 1391 1618 1489 1390 1571 1480 1395 783 1230 1646 1437 1121 983 1324 2060 1576 911 1110 913 1507 1639 1713 1780 1384 1286 1519 2031 1610 1602 1429 2140 1474 1171 1084 1208 972 1205 999 1333 1870 1120 1623 1271 1557 1708 1459 1269 1792 1228 1619 1567 984 1425 1428 996 1605 1765 1274 1684 1439 1373 1437 1844 1327 580 1004 891 1025 1187 1167 1203 1143 1394 1461 936 1132 1606 988 1419 1387 907 1621 1075 1287 1490 1197 1831 952 990 1126 1758 1375 1519 1220 1337 1132 871 1316 1474 1825 1715 1514 1308 1613 1492 1507 1261 1564 1087 1620 1792 969 1085 1119 1740 1980 1389 1876 1836 1593 1637 1377 1363 1206 1636 1473 863 1113 1914 1171 1525 1201 1200 865 1411 1386 1117 1474 1422 1056 2032 1200 1422 1269 1391 1259 1208 1002 1216 1271 1253 837 1672 1498 864 1504 1191 869 1503 1515 1609 1532 1800 1311 798 1619 1038 1111 1282 1585 1224 1505 863 1026 1008 891 1683 1770 1930 825 1178 1575 1111 1275 1397 1435 1276 1689 1186 1062 1206 684 1058 970 1220 1181 1589 1705 1189 1312 1213 1198 872 1446 1318 1245 1408 1102 1205 779 771 1204 1669 1208 1333 1475 1515 1202 1210 1398 900 1320 1803 1160 2074 1861 1430 1402 1190 1405 1235 1111 1618 1419 1732 1158 1730 1501 1088 1379 1089 1214 1103 1650 1291 1543 1525 1215 1085 971 1213 875 1517 1280 1259 1084 985 1259 1599 1071 1506 1197 1197 898 890 1307 1915 2206 1526 1472 1969 945 1215 1742 1395 1512 1495 1552 1683 1556 1507 1223 569 1214 1401 930 813 1318 919 1276 1176 1009 863 1082 1120 1105 1171 1319 1102 1686 1500 1104 913 1094 1307 606 706 906 1220 1327 1093 1079 765 1016 1484 1281 1348 876 1511 1172 1543 1474 1318 1424 1775 1815 1260 882 897 1166 1264 845 1100 1085 1612 1614 1379 1204 1424 1479 1093 1007 1707 1281 1618 1529 1654 1456 1600 1303 1321 1018 1331 1028 1192 1127 1544 2201 1540 1884 1523 1271 1701 1065 819 885 1211 853 1042 1299 1368 1107 1222 581 1696 998 994 1184 965 1288 1434 1434 1333 1394 1689 1700 1302 1144 1242 980 1127 1390 1325 889 1505 781 937 857 1747 1284 1264 1783 1493 1026 1178 1885 874 972 1213 1113 1031 685 1108 1111 1127 883 1065 1461 1714 1383 1674 1021 1405 1423 1683 1190 1849 1146 1224 1109 1320 876 1284 1320 1415 1207 1184 991 1309 995 1498 1203 1388 1177 1616 1197 1276 1187 895 1925 966 1073 1268 1464 1392 1169 990 895 900 1182 1095 1023 1284 911 1033 1431 1182 1052 1356 707 677 1107 1368 1296 978 887 1371 1284 1082 806 904 966 669 1169 828 954 1402 1356 781 873 1146 595 781 685 1527 1390 1413 1068 985 1080 882 1199 1101 1072 575 1047 1006 882 1286 955 583 771 918 1296 786 483 1000 907 1957 1377 1598 1479 1265 1112 1272 1200 1513 1300 1281 1308 896 591 574 678 813 1406 985 1131 965 1000 1102 923 1222 1237 1210 590 994 997 1424 1318 1986 1777 1164 1267 1641 1400 1410 1876 1447 1265 1294 1322 1421 1337 896 1196 1305 1015 1129 1082 974 951 1311 1076 1073 1008 1204 1586 890 1858 1730 2048 1348 1669 1093 1443 1472 1507 1202 1173 1263 1261 1206 1566 1121 1249 1877 889 873 490 959 1091 856 1371 1323 1105 1111 917 1462 1007 905 702 1173 999 1600 1226 1072 1233 1363 1468 1192 1502 1003 996 1145 1312 1075 1507 1522 659 1246 1089 1526 1313 1405 1092 876 882 1285 707 1235 917 1048 786 993 758 1074 1577 688 1084 762 683 570 1085 964 775 927 983 905 886 1187 1099 990 1192 655 1176 1378 705 1026 761 950 904 1357 971 870 1085 1305 1108 1385 1334 991 692 1001 1203 799 889 956 462 769 1416 1273 1060 1102 1212 1381 1430 978 1381 1254 1484 1155 1283 1066 989 1081 1105 1011 1095 962 1029 1294 1366 1102 1109 1319 700 1617 1038 793 909 740 1050 1186 997 1762 1197 1543 1102 905 678 992 1376 776 786 1259 1446 1080 1170 1183 899 1231 1923 1035 1165 979 1358 978 1441 1735 1630 481 774 1617 1255 1283 1347 1258 1227 1164 1066 1093 1290 1365 1203 999 1735 1447 694 1297 879 587 892 874 890 786 1203 788 568 897 1067 982 881 1195 1526 1505 2005 1082 1671 979 702 884 773 983 662 906 1665 890 702 1101 640 1085 993 1052 1237 987 1052 572 961 676 471 1012 912 1275 1026 888 1474 1040 1020 1627 724 1213 1226 880 1468 1303 981 1087 1177 1577 908 1226 979 1306 1308 882 1280 1687 1183 1099 1103 1307 885 1050 1188 1222 1253 1302 1090 1525 1409 1314 1092 1413 1400 1154 1159 1482 1119 691 1067 1358 879 809 1211 1079 1506 1101 1262 1799 1681 1478 1242 1217 1497 903 1054 682 568 600 1098 889 698 1217 996 928 1396 881 1108 795 1069 907 1020 1199 969 842 896 895 895 1097 1106 691 785 1200 1373 1169 1091 1826 999 1798 1108 910 995 987 969 1357 661 754 876 699 1030 1308 1372 913 1176 1413 1066

Tree=0
num_leaves=14
num_cat=0
split_feature=2 11 22 52 151 147 113 138 26 52 153 24 52
split_gain=6751.06 2001.32 1310.55 1124.74 824.037 256.453 170.601 130.103 94.9207 65.3376 59.9059 54.0604 0.698205
threshold=1.0000000180025095e-35 174.85000000000005 -1.0000000180025095e-35 41157.590000000004 1.5000000000000002 -10034.909999999998 -773.99999999999989 20407.600000000002 1.0000000180025095e-35 70060.500000000015 123.16500000000001 5.5000000000000009 1.0000000180025095e-35
decision_type=2 2 2 2 10 8 8 10 2 2 10 2 2
left_child=2 3 6 4 5 -2 -1 -6 11 10 -10 -3 -13
right_child=1 8 -4 -5 7 -7 -8 -9 9 -11 -12 12 -14
leaf_value=-3.4999124854088457 -4.5234534548834615 -4.3891441133824713 -4.0128566344669983 -4.6455188441443234 -4.4204359563777329 -4.1632839056960913 -2.3634444406629251 -4.5870784084121237 -4.5725346312248893 -4.6600453232635521 -4.6315666055518232 -4.5725346312248893 -4.5947467881757307
leaf_weight=8.4312204606831056 21.123597960919142 17.732891052961349 16.042598355561495 127.45009368658066 78.704886317253113 157.14661329239607 8.9069315791130084 64.41330973803997 157.14661329239607 692.24064942076802 891.48263593763113 5.4757386185228851 15.425186052918432
leaf_count=833 2087 1752 1585 12592 7776 15526 880 6364 15526 68393 88078 541 1524
internal_value=-4.57228 -4.59147 -3.32398 -4.42206 -4.33226 -4.20309 -2.78722 -4.49772 -4.6345 -4.63774 -4.62254 -4.50139 -4.58328
internal_weight=2261.72 2228.34 33.3808 448.839 321.388 178.27 17.3382 143.118 1779.5 1740.87 1048.63 38.6338 20.9009
internal_count=223457 220159 3298 44345 31753 17613 1713 14140 175814 171997 103604 3817 2065
is_linear=0
shrinkage=1


Tree=1
num_leaves=24
num_cat=0
split_feature=137 11 107 11 107 138 18 22 21 107 10 107 107 141 11 33 107 16 21 135 107 10 94
split_gain=2141.59 1397.6 415.538 286.552 253.279 141.677 101.138 66.0877 49.3224 72.251 39.9555 36.1793 26.1874 22.2102 20.5899 31.9249 13.2366 11.169 23.6943 8.79064 6.73713 5.2988 4.12748
threshold=1116.6750000000004 16.490000000000006 31.500000000000004 130.33000000000001 31.500000000000004 16365.885000000002 1962.4950000000001 23734.310000000001 1.0000000180025095e-35 75.500000000000014 -341.78499999999991 22.500000000000004 75.500000000000014 1.8650000000000004 746.99500000000012 23099.555000000004 105.50000000000001 -233.41999999999999 1.0000000180025095e-35 -758.49999999999989 47.500000000000007 -951.3649999999999 1.0000000180025095e-35
decision_type=10 2 2 2 2 10 2 2 2 2 2 2 2 8 2 2 2 2 2 8 2 2 2
left_child=1 4 7 5 17 6 10 13 16 11 -2 -10 20 -3 15 -4 -5 18 -1 -9 -7 -8 -16
right_child=3 2 14 8 -6 12 21 19 9 -11 -12 -13 -14 -15 22 -17 -18 -19 -20 -21 -22 -23 -24
leaf_value=0.58512181887519155 0.027799999118628498 0.34871338110717742 0.026115769880157187 0.15171219426253355 0.046403472934551632 0.047025230910088256 -0.02643331573525667 0.0026469434464830356 0.069235895678453507 -0.077943048093464806 0.21354668583679443 -0.037560371692284884 -0.067862532046406451 0.1808961112921634 -0.059569544764054398 -0.066146437637892325 0 0.29822845617648008 0.3787514932211542 0.13030274429705635 -0.013595876001915783 0.027779351165474041 0
leaf_weight=20.421220694668591 18.243999635800719 16.728243189863861 106.92973482701927 8.3324180124327523 22.823350016959012 25.972802745178342 12.30062446836382 24.490193063393235 24.480023457668722 1169.6264609880745 53.334651277400553 313.74973364546895 71.73317913711071 76.85021660476923 84.028834780678153 41.084004072472453 5.5579167231917372 51.972175656817853 92.730244663543999 7.6248992206528774 17.054167585447431 53.108784488402307 6.7997817620635024
leaf_count=563 1438 1268 9899 848 1828 2292 1089 2293 2404 123615 4127 32474 7279 4972 8553 3801 585 2903 3663 659 1644 4577 683
internal_value=-0.00217839 0.152253 0.0477368 -0.0505862 0.351218 0.0372498 0.0994633 0.179755 -0.0654003 -0.067134 0.173005 -0.0284212 -0.0338032 0.219262 -0.0206219 0 0.0863191 0.390274 0.425383 0.0487205 0.0141736 0.0112347 -0.0540631
internal_weight=2325.98 552.483 364.536 1773.49 187.947 251.748 136.988 125.694 1521.75 1507.86 71.5787 338.23 114.76 93.5785 238.842 148.014 13.8903 165.124 113.151 32.1151 43.027 65.4094 90.8286
internal_count=223457 41085 32128 182372 8957 22446 11231 9192 159926 158493 5565 34878 11215 6240 22936 13700 1433 7129 4226 2952 3936 5666 9236
is_linear=0
shrinkage=0.0900493


Tree=2
num_leaves=20
num_cat=0
split_feature=11 25 28 33 28 52 104 22 33 107 22 111 52 52 12 140 25 28 121
split_gain=1885.4 417.757 265.27 183.871 233.951 115.656 97.9227 96.8419 74.5235 51.0913 60.0791 25.7361 21.4648 15.4098 12.7175 10.3466 1.83682 1.55474 1.26756
threshold=50.045000000000009 2337.7050000000004 2662.3350000000005 156952.81500000003 8097.6950000000006 41157.590000000004 3577.6500000000005 13136.575000000003 77359.095000000016 131.50000000000003 30704.625000000004 8.0000000000000018 57768.485000000008 41157.590000000004 5.5000000000000009 846.80000000000007 11837.920000000002 18517.205000000005 16470.560000000001
decision_type=2 2 2 2 2 2 2 2 2 2 2 8 2 2 2 10 2 2 8
left_child=1 3 6 4 14 9 7 8 -2 10 -4 -9 16 15 -1 -3 -8 -17 -6
right_child=2 13 5 -5 18 -7 12 11 -10 -11 -12 -13 -14 -15 -16 17 -18 -19 -20
leaf_value=0.28596742793018465 0.15954170749087648 0.055313578049241439 0.0056896050898163058 -0.035912885827288001 -0.010833507288187537 -0.087054553641794347 0.018119908058347917 -0.011933343340522812 -0.015798201472784709 -0.068192825977181959 -0.054928429469679609 0.092208127308650481 -0.069628628261498071 -0.067709883894828155 0.21369865790824547 0 -0.012461676095093879 -0.044708896843012567 0.019066084231072637
leaf_weight=98.361912216991186 86.779291209764779 20.711170073598623 314.25977965444326 22.523642763495445 18.667728799395263 703.65020823013037 32.367261303588748 104.3421686142683 19.857305223122239 267.64611061196774 215.87167966924608 21.744532234966755 69.494279060512781 36.494857273995876 227.82461331132799 8.5450892830267566 23.668556889519095 13.804768375121055 20.629502084106207
leaf_count=2680 6014 1359 31681 1360 1806 80589 2856 10241 1455 29946 23530 1960 7457 3961 10340 688 2315 1450 1769
internal_value=-0.00253463 0.158684 -0.0433628 0.197245 0.212785 -0.0600475 0.025407 0.060535 0.123344 -0.0356254 -0.0183051 0.00357294 -0.0364922 -0.0245319 0.23771 0.00381644 0 -0.0271939 0
internal_weight=2327.24 467.563 1859.68 388.007 365.484 1501.43 358.253 232.723 106.637 797.778 530.131 126.087 125.53 79.5559 326.187 43.061 56.0358 22.3499 39.2972
internal_count=223457 25413 198044 17955 16595 165746 32298 19670 7469 85157 55211 12201 12628 7458 13020 3497 5171 2138 3575
is_linear=0
shrinkage=0.0900493


Tree=3
num_leaves=18
num_cat=0
split_feature=147 18 33 52 21 52 11 2 28 25 33 131 153 18 131 142 134
split_gain=1234.17 612.774 509.727 205.258 185.174 160.626 159.072 147.286 72.5679 44.5088 42.1695 24.0777 20.9263 14.7004 12.5494 2.01815 1.77122
threshold=-2702.0999999999995 1962.4950000000001 7277.130000000001 33973.920000000006 1.0000000180025095e-35 47630.755000000005 365.41000000000003 1.0000000180025095e-35 8097.6950000000006 7016.3050000000012 77359.095000000016 146.62500000000003 5436.8550000000005 10043.330000000002 29.325000000000003 290317.50000000006 1107649.2350000003
decision_type=8 2 2 2 2 2 2 2 2 2 2 10 10 2 10 8 8
left_child=3 2 4 6 -2 9 8 -6 12 10 -3 -10 -1 14 -8 -11 -4
right_child=1 5 16 -5 7 -7 13 -9 11 15 -12 -13 -14 -15 -16 -17 -18
leaf_value=0.103440961295649 0.37428973463166165 0.094885877614504885 0 -0.08645199431090321 0.10529674360296958 -0.07205021880636725 0.004428590160013352 0.24472306223718804 0.018153810226736931 -0.015839813462460259 -0.038510501778305041 -0.045953278334092788 0 -0.060267881729479736 -0.05003683151484193 0.011258272428260151 -0.034380837745000746
leaf_weight=94.690589755773544 53.03185252379626 136.84446774888784 32.657268105074763 697.82161376159638 135.9883222412318 140.74471449386328 61.848343792371452 145.22519155871123 146.20565232168883 51.079268386587501 16.98542102240026 68.253665228374302 18.78908247128129 389.73422566987574 53.27517997007817 25.826804024167359 57.188571003265679
leaf_count=6662 1102 10095 1847 86118 2340 15504 6884 7374 14381 4759 1152 7146 1492 45540 6070 2330 2661
internal_value=-0.00285066 0.0878642 0.161683 -0.0502974 0.21284 0.00225445 -0.0194367 0.179476 0.0285453 0.0494583 0.0773684 -0.000524287 0.0864172 -0.0513946 -0.0175716 -0.00154487 -0.0245042
internal_weight=2326.19 795.572 424.091 1530.62 334.245 371.481 832.797 281.214 327.939 230.736 153.83 214.459 113.48 504.858 115.124 76.9061 89.8458
internal_count=223457 49164 15324 174293 10816 33840 88175 9714 29681 18336 11247 21527 8154 58494 12954 7089 4508
is_linear=0
shrinkage=0.0900493


Tree=4
num_leaves=14
num_cat=0
split_feature=107 28 52 33 33 52 129 52 153 153 147 7 16
split_gain=1024.68 467.769 647.536 193.557 146.535 42.0698 24.5311 23.1223 22.018 3.05947 2.04064 1.64759 1.52357
threshold=93.500000000000014 5421.9550000000008 1.0000000180025095e-35 94441.060000000012 37856.230000000003 70060.500000000015 43.500000000000007 41157.590000000004 955.99500000000012 3384.105 -5699.7349999999997 4008.0250000000005 -1058.2199999999998
decision_type=2 2 2 2 2 2 8 2 10 10 10 2 2
left_child=1 2 3 4 -1 6 10 9 -8 -2 -3 -5 -4
right_child=7 5 12 11 -6 -7 8 -9 -10 -11 -12 -13 -14
leaf_value=0.15656544908799552 -0.039983598052914023 -0.041405726944628546 -0.015569927983992869 -0.041371921025844305 -0.025483075047306923 -0.081636381802367361 0.046964398601881049 -0.085873605629440172 -0.0074611283840417368 -0.065126513225621088 0 0 -0.068675617577335937
leaf_weight=569.46678555756807 217.44585648877546 129.21439655637369 26.910670334007591 39.12863356154412 33.902846422977746 75.092183291446418 81.425105708185583 549.0734378551133 194.70669945469126 232.75091140158474 17.214737881906331 9.8566851699724776 145.57826328743249
leaf_count=22386 24169 14225 2135 2170 1492 10045 7757 73593 20563 28588 1574 652 14108
internal_value=-0.00307219 0.0487291 0.0903681 0.131547 0.145638 -0.0195304 -0.00733832 -0.072008 0.00727031 -0.054017 -0.0374497 -0.0333096 -0.0628797
internal_weight=2321.77 1322.5 824.844 652.355 603.37 497.653 422.561 999.27 276.132 450.197 146.429 48.9853 172.489
internal_count=223457 97107 42943 26700 23878 54164 44119 126350 28320 52757 15799 2822 16243
is_linear=0
shrinkage=0.0900493


Tree=5
num_leaves=17
num_cat=0
split_feature=11 33 28 85 94 25 133 21 126 131 104 144 21 7 94 21
split_gain=1036.79 251.983 158.844 107.041 90.1626 87.0651 64.0536 33.8939 23.4908 22.6366 19.4726 17.0698 9.54888 3.64278 2.26694 0.806912
threshold=130.33000000000001 55730.545000000006 8097.6950000000006 5894.3250000000007 1.0000000180025095e-35 4015.9250000000006 8.0000000000000018 1.0000000180025095e-35 153.12000000000003 64.515000000000015 1.0000000180025095e-35 56.000000000000007 1.0000000180025095e-35 1370.6550000000004 1.0000000180025095e-35 1.0000000180025095e-35
decision_type=2 2 2 2 2 2 8 2 8 10 2 8 2 2 2 2
left_child=1 2 3 4 -1 6 7 -2 -9 10 -4 12 -7 -5 15 -13
right_child=5 -3 9 13 -6 11 -8 8 -10 -11 -12 14 -14 -15 -16 -17
leaf_value=0.11428304237207096 0.12194326227126107 -0.055768066459372052 0.055182718240706502 -0.013540544576857948 0.30434874335797446 0 0.1103844538425806 -0.055000067439167188 -0.014533789781399142 -0.05521821595786431 -0.039282007874534598 0 -0.072840310019589849 0.045576416672969057 0 -0.031795464615854793
leaf_weight=550.22972703538835 9.6535007664933783 99.931392615661025 58.304589469917119 50.282143232412636 23.314298146404326 6.6770516997203222 26.185625263024122 224.18102638423443 321.01155043905601 40.972400675527751 19.208626316394657 13.935682725626974 787.66480352869257 8.4506136737763864 5.7138561224564901 71.390632035210729
leaf_count=15592 865 7325 5196 3637 868 761 1564 27687 34584 4728 2211 1513 108116 530 608 7672
internal_value=-0.00330915 0.0755252 0.0935997 0.111502 0.123342 -0.049342 -0.0211684 -0.0283313 -0.0319972 0 0.0264055 -0.0673214 -0.07186 0 -0.0229237 -0.0277952
internal_weight=2317.11 850.694 750.762 632.277 573.544 1466.41 581.032 554.846 545.193 118.486 77.5132 885.382 794.342 58.7328 91.0402 85.3263
internal_count=223457 40087 32762 20627 16460 183370 64700 63136 62271 12135 7407 118670 108877 4167 9793 9185
is_linear=0
shrinkage=0.0900493


Tree=6
num_leaves=16
num_cat=0
split_feature=138 52 33 52 94 56 22 115 33 33 28 133 150 27 133
split_gain=696.312 207.72 175.842 374.808 78.9657 74.4115 60.5533 53.7181 37.3439 35.4932 13.2979 8.83193 3.44272 2.80388 1.08532
threshold=2988.0650000000005 25089.535000000003 7277.130000000001 25089.535000000003 1.0000000180025095e-35 69.840000000000018 23734.310000000001 2530.3500000000004 27715.445000000003 43527.930000000008 13702.440000000002 1.0000000180025095e-35 846.80000000000007 1.5000000000000002 1.0000000180025095e-35
decision_type=10 2 2 2 2 2 2 10 2 2 2 8 10 2 8
left_child=2 5 3 4 6 7 -1 9 14 -2 13 -5 -9 -7 -4
right_child=1 -3 8 11 -6 10 -8 12 -10 -11 -12 -13 -14 -15 -16
leaf_value=0.10591511868967259 0.039879372399464132 -0.08473064227070079 0.083995244826108567 -0.069589542576176194 0.25162134497645566 0.011355305469976346 0.022973114040549296 0 -0.054377310354937071 -0.055551867886643645 -0.061224893622140349 0 -0.04157980602425411 -0.021502932796351737 0.0011080846058531496
leaf_weight=527.25599756045267 297.11838336009532 586.75704623758793 12.459754548501225 119.50156954582781 29.638768561650068 9.0685159931890649 98.426981856580824 18.731897115241736 121.25931390281767 30.978378651198 208.35379027575254 13.788703054655342 122.60101510677487 88.980260076932609 14.399894838687031
leaf_count=13393 28657 89443 781 13868 1186 713 7564 1571 8810 3177 27740 1321 15467 9280 579
internal_value=-0.00299298 -0.0442314 0.0565428 0.0735913 0.101799 -0.0129979 0.0935809 0.00881923 -0.0313855 0.0294716 -0.0476362 -0.0617566 -0.0361369 -0.0142996 0.0559008
internal_weight=2299.32 1362.59 936.731 788.612 655.322 775.832 625.683 469.43 148.119 328.097 306.403 133.29 141.333 98.0488 26.8596
internal_count=223550 176048 47502 37332 22143 86605 20957 48872 10170 31834 37733 15189 17038 9993 1360
is_linear=0
shrinkage=0.0900493


Tree=7
num_leaves=20
num_cat=0
split_feature=18 33 107 131 107 111 111 28 147 107 138 111 113 28 120 22 147 94 138
split_gain=729.288 203.388 167.773 114.936 48.1891 25.4459 23.5744 16.4773 15.2716 12.53 11.7724 9.85143 8.90484 9.79609 2.78662 2.76592 1.92299 0.890911 0.725011
threshold=3244.5750000000003 4074.9100000000003 54.500000000000007 64.515000000000015 31.500000000000004 1.0000000180025095e-35 8.0000000000000018 2662.3350000000005 -10034.909999999998 162.50000000000003 9445.505000000001 1.0000000180025095e-35 -1215.9999999999998 10791.760000000002 211140.00000000003 292.40000000000003 -20221.229999999996 1.0000000180025095e-35 6243.1500000000005
decision_type=2 2 2 10 2 8 8 2 8 2 10 8 10 2 10 2 10 2 8
left_child=1 3 5 4 6 12 -1 16 -4 -6 -7 17 15 -14 -5 -2 -3 -10 -16
right_child=2 7 8 14 9 10 -8 -9 11 -11 -12 -13 13 -15 18 -17 -18 -19 -20
leaf_value=0.085848927879786749 0 -0.011759812140142585 -0.070972261540841422 -0.023819995655436355 0.049218816367236101 0.089193581698609192 0.13467341925247978 -0.06486346104586839 -0.051677809866836691 -0.026430177104137285 0 0 0.031231043572053991 -0.015675373690490345 0.022649551969988985 -0.024537908417892107 0.01554530780492578 -0.0038295959105824019 0
leaf_weight=341.89337531058118 14.654227337799965 81.824336415156722 724.88970111263916 61.157537104561925 134.03430936625227 41.88275493029505 185.01534797623754 66.73156627593562 246.54258232330903 12.329371816944329 8.8048508944921178 47.990860453341156 102.66332237562165 41.546547912992537 10.236400492023675 102.13548048585653 18.630013042595237 22.261298202909529 22.872314787004143
leaf_count=8853 1176 4091 111968 4942 9924 2553 2762 7809 32769 1470 939 5396 7817 4850 392 9232 1083 2829 2695
internal_value=-0.00297577 0.0579649 -0.0453773 0.0776979 0.0907936 0.0114655 0.104029 -0.0301397 -0.0627656 0.0399479 0.0690449 -0.0425185 0 0.0149266 -0.011577 -0.0183655 -0.00260401 -0.0492438 0
internal_weight=2288.1 934.725 1353.37 767.539 673.272 311.687 526.909 167.186 1041.68 146.364 50.6876 316.795 261 144.21 94.2663 116.79 100.454 268.804 33.1087
internal_count=223550 44021 179529 31038 23009 26567 11615 12983 152962 11394 3492 40994 23075 12667 8029 10408 5174 35598 3087
is_linear=0
shrinkage=0.0900493


Tree=8
num_leaves=16
num_cat=0
split_feature=28 52 52 22 8 98 22 115 96 22 111 81 153 11 119
split_gain=531.024 162.038 114.767 89.4911 61.7699 43.2592 40.7891 38.3148 29.1978 21.4619 3.1702 2.30836 2.24834 0.445342 0.20275
threshold=2662.3350000000005 41157.590000000004 74249.220000000016 23734.310000000001 18927.430000000004 1.0000000180025095e-35 30704.625000000004 2530.3500000000004 1.0000000180025095e-35 9058.6700000000019 8.0000000000000018 148226.03000000003 1131.9450000000002 669.60500000000013 11.720000000000002
decision_type=2 2 2 2 2 2 2 10 2 2 8 2 10 2 8
left_child=2 3 5 4 7 6 8 -2 -1 -7 -8 -4 -6 14 -5
right_child=1 -3 11 13 12 9 10 -9 -10 -11 -12 -13 -14 -15 -16
leaf_value=0.042321710818909598 0.050370286703735702 -0.083981765840243652 -0.061890134395850602 -0.048048133691072858 -0.0054394552246474744 0.19098571935798783 -0.0078001250109749768 -0.019777604384752432 0.082921625212993288 0.019651115749627791 0.030048137116403226 0 -0.049807319016856019 -0.057793286534799065 -0.015808112897058541
leaf_weight=520.71480630198494 236.00085788313299 473.61892749741673 69.527003211434931 42.407002323772758 35.092286824714392 29.569272718857974 95.335315372794867 75.646051917225122 258.5024396427907 14.787951778154818 20.741282539442182 9.1715692747384292 94.560236209537834 233.47633581422269 65.531539801042527
leaf_count=13012 20567 84728 9478 5722 3051 995 8402 9494 10439 1204 1402 1330 11610 34569 7547
internal_value=-0.00294451 -0.0422641 0.0451609 -0.0164147 0.00960585 0.0541394 0.0490077 0.0320437 0.0564161 0.144773 0 -0.0561838 -0.0410426 -0.051139 -0.032565
internal_weight=2274.68 1256.33 1018.35 782.714 441.299 939.651 895.294 311.647 779.217 44.3572 116.077 78.6986 129.653 341.415 107.939
internal_count=223550 177288 46262 92560 44722 35454 33255 30061 23451 2199 9804 10808 14661 47838 13269
is_linear=0
shrinkage=0.0900493


Tree=9
num_leaves=13
num_cat=0
split_feature=52 138 33 21 10 22 115 127 127 111 133 28
split_gain=671.629 250.257 142.723 78.0354 78.3837 31.107 13.0713 9.20129 7.57005 5.79672 4.96461 2.08627
threshold=14076.585000000001 14550.930000000002 37856.230000000003 1.0000000180025095e-35 -250.43499999999997 9058.6700000000019 1016.5850000000002 1406.5000000000002 776.50000000000011 8.0000000000000018 8.0000000000000018 15252.695000000002
decision_type=2 10 2 2 2 2 8 10 8 8 8 2
left_child=1 2 3 -1 -5 6 7 -3 -7 -8 -2 -10
right_child=10 5 -4 4 -6 8 9 -9 11 -11 -12 -13
leaf_value=0.12862880535477733 -0.081059096794865518 0.053626394366538668 -0.049297801481031939 -0.0055456931944043364 0.063306012053652577 0 -0.035627349665530307 0 0 0.0028245468358322995 -0.025471417899014619 -0.055501880589193024
leaf_weight=130.81826682155952 632.9167208513245 42.761091851163656 98.293983027338982 150.09965209104121 751.29320486588404 31.64062929013744 78.286812812555581 61.439803829416633 17.30686254799366 23.406854145694524 36.815691052936018 210.62011160328984
leaf_count=2269 109196 4053 6250 12711 26687 4546 10592 6470 2267 2173 3979 32357
internal_value=-0.0028935 0.0286831 0.0516686 0.0617204 0.0514021 -0.0262686 0 0.0221832 -0.046926 -0.0229305 -0.0786564 -0.0526686
internal_weight=2265.7 1595.97 1130.51 1032.21 901.393 465.462 205.895 104.201 259.568 101.694 669.732 227.927
internal_count=223550 110375 47917 41667 39398 62458 23288 10523 39170 12765 113175 34624
is_linear=0
shrinkage=0.0900493


Tree=10
num_leaves=21
num_cat=0
split_feature=28 107 84 52 18 107 8 21 127 11 5 33 135 8 11 107 5 127 5 112
split_gain=362.182 137.908 104.498 75.4784 36.6437 28.3783 21.3497 18.6981 28.1913 17.7063 11.2449 8.43449 5.84592 4.46206 4.17262 3.59629 2.53361 2.29425 1.21738 0.14409
threshold=4094.4200000000005 31.500000000000004 1.0000000180025095e-35 41157.590000000004 254.73000000000005 61.500000000000007 23265.485000000004 1.0000000180025095e-35 236.50000000000003 831.78500000000008 59.500000000000007 4074.9100000000003 -683.99999999999989 10394.995000000001 365.41000000000003 54.500000000000007 38.500000000000007 1406.5000000000002 51.500000000000007 69676.200000000012
decision_type=2 2 2 2 2 2 2 2 8 2 2 2 8 2 2 2 2 8 2 10
left_child=2 4 5 6 -2 7 9 16 -9 -3 11 14 19 17 -4 -8 -1 -6 -7 -12
right_child=1 3 10 -5 13 18 15 8 -10 -11 12 -13 -14 -15 -16 -17 -18 -19 -20 -21
leaf_value=0.11525194800596143 0.1158474945125189 -0.0021094280862330094 0 -0.082653154032607201 0 -0.013590578685414469 -0.0063859713631194606 -0.0078981918062174042 0.048553204737068319 -0.047027221833066381 -0.010954452921945638 -0.069418878321309649 0.073600192907077935 -0.01434849744501571 -0.035192034213014131 -0.05901496397158492 0.062217118248993911 0.047766162684466505 0.0048961012334290538 0
leaf_weight=46.802757813129574 44.112981273792684 279.18501649284735 84.403498146217316 386.46099927742034 17.915885549038649 50.446461553685367 30.405413683503866 66.948729993309826 637.05731586040929 105.51581921102479 8.5130611076019722 43.434832605533302 9.5268383333459479 28.827734108548611 59.833528541494161 182.94964902522042 105.58328036125749 20.567919873166829 26.587752523832023 17.782697158399969
leaf_count=853 2538 32606 6028 81724 1404 4697 3359 2078 17658 16569 733 5153 718 2453 8475 28890 2083 1486 2422 1623
internal_value=-0.00286813 -0.0401058 0.0320637 -0.0510666 0.0526639 0.0454391 -0.0298555 0.0501807 0.0426087 -0.0155844 -0.0219475 -0.0315978 0.017099 0.00404357 -0.0169483 -0.0534731 0.0819192 0.0279934 -0.00208072 0
internal_weight=2252.86 1095.94 1156.92 984.517 111.425 933.426 598.056 856.392 704.006 384.701 223.494 187.672 35.8226 67.3115 144.237 213.355 152.386 38.4838 77.0342 26.2958
internal_count=223550 171029 52521 163148 7881 29791 81424 22672 19736 49175 22730 19656 3074 5343 14503 32249 2936 2890 7119 2356
is_linear=0
shrinkage=0.0900493


Tree=11
num_leaves=18
num_cat=0
split_feature=27 52 8 52 33 111 107 11 96 153 115 25 107 81 8 16 98
split_gain=318.946 160.445 96.7915 73.0078 66.5469 64.9779 41.7067 27.4864 22.163 12.8597 12.3876 6.34855 5.34002 4.58864 2.96744 1.60626 0.815196
threshold=2.5000000000000004 1.0000000180025095e-35 7602.1550000000016 78642.700000000012 69505.87000000001 1.0000000180025095e-35 47.500000000000007 599.87500000000011 1.0000000180025095e-35 2727.2250000000008 2530.3500000000004 3157.7700000000004 22.500000000000004 65296.195000000007 -5359.1249999999991 -8747.5199999999986 1.0000000180025095e-35
decision_type=2 2 2 2 2 8 2 2 2 10 10 2 2 2 2 2 2
left_child=3 2 6 4 5 7 10 -1 -7 13 -2 -8 -11 -4 -5 -6 -16
right_child=1 -3 9 14 15 8 11 -9 -10 12 -12 -13 -14 -15 16 -17 -18
leaf_value=0.031737426734774719 0.094866657283779215 -0.081016535155004524 -0.008031051254085271 0 0 0.055900059755096279 0.022826613849722729 -0.019715852251534629 0.11558497233010033 0 0 -0.014158391476045865 -0.057730281060308919 -0.045850581541261891 -0.063200796651689525 -0.051139338556172406 0
leaf_weight=611.73151179682463 81.520244291052222 432.12509367335588 167.26355337304994 3.9170507909730068 13.676748051773755 238.77088909083977 72.218170090112835 86.650933736003935 95.674316041171551 5.2692605494521549 10.814927922096102 67.784792655613273 180.92532370146364 44.387197827920318 63.406755833420902 60.039522227831185 5.1194104775786391
leaf_count=19914 5127 92188 17675 630 833 4011 8980 9082 3244 353 1096 9735 27985 6844 10628 4388 837
internal_value=-0.00278863 -0.0387157 -0.00897012 0.0292479 0.03522 0.0413326 0.0362341 0.0247537 0.0745344 -0.0364096 0.0829802 0.002097 -0.0548456 -0.0180747 -0.0555697 -0.0443186 -0.0600533
internal_weight=2241.3 1062.31 630.183 1178.99 1106.54 1032.83 232.338 698.382 334.445 397.845 92.3352 140.003 186.195 211.651 72.4432 73.7163 68.5262
internal_count=223550 169983 77795 53567 41472 36251 24938 28996 7255 52857 6223 18715 28338 24519 12095 5221 11465
is_linear=0
shrinkage=0.0900493


Tree=12
num_leaves=9
num_cat=0
split_feature=133 11 52 33 137 133 134 25
split_gain=435.738 294.943 90.6184 99.6888 60.3326 19.4757 1.63904 0.507337
threshold=8.0000000000000018 599.87500000000011 83235.010000000009 55730.545000000006 6739.9400000000014 8.0000000000000018 267444.00000000006 23925.805000000004
decision_type=10 2 2 2 10 8 10 2
left_child=1 2 3 4 -1 7 -5 -3
right_child=-2 5 -4 6 -6 -7 -8 -9
leaf_value=0.038418362629811388 0.60879117076292533 -0.05356207644478863 -0.070526616599995734 -0.060847317346249312 -0.0039873407437194331 0.016867253406190472 0 -0.074343324762436144
leaf_weight=1022.943125950871 8.1601993222720903 422.56180618936196 92.027837919769809 108.30593688110821 347.665486384416 18.450882543809712 12.788423778954892 192.15563475037925
leaf_count=31475 187 74776 19861 10451 42142 1488 1717 41391
internal_value=-0.00313592 -0.00590475 0.0146646 0.0202439 0.0273739 -0.0579191 -0.0566273 -0.0608476
internal_weight=2225.06 2216.9 1583.73 1491.7 1370.61 633.168 121.094 614.717
internal_count=223488 223301 105646 85785 73617 117655 12168 116167
is_linear=0
shrinkage=0.0900493


Tree=13
num_leaves=16
num_cat=0
split_feature=24 133 81 33 126 28 96 18 94 22 153 111 108 137 21
split_gain=279.152 172.582 102.901 101.101 40.7566 29.4551 17.9949 10.3275 9.70347 11.6102 5.09264 3.22178 2.69781 2.32646 0.592232
threshold=1.5000000000000002 8.0000000000000018 14076.655000000001 14516.140000000001 114.95 5421.9550000000008 1.0000000180025095e-35 4697.1450000000013 1.0000000180025095e-35 94523.215000000011 1131.9450000000002 1.0000000180025095e-35 1.0000000180025095e-35 2580.2050000000004 1.0000000180025095e-35
decision_type=2 10 2 2 8 2 2 2 2 2 8 8 2 8 2
left_child=1 2 3 4 -1 6 14 10 9 -8 -4 -9 -7 -5 -2
right_child=5 -3 7 13 -6 12 8 11 -10 -11 -12 -13 -14 -15 -16
leaf_value=-0.0035676670609853726 0 0.3443310736425127 0.012342969745134954 -0.0075023792807494714 0.046572234619791535 -0.060965394305387832 0.0023089050467439221 -0.047193174018705486 0.059217431079209668 -0.049869652575615611 -0.023257703892498208 0 0 -0.054255938651097908 -0.05645430885812934
leaf_weight=137.47034638607875 11.797071121633051 12.111181439831851 51.088498734170571 34.134015411604196 865.12104497314431 497.34787366865203 112.5794054553844 163.03737519867718 17.110584997572005 42.174765739357099 63.806878470582888 20.554185269400477 16.396357538644224 91.209684027824551 77.658144259126857
leaf_count=11263 1116 148 2549 1728 27334 107051 10986 24682 1719 6661 6458 2043 3717 7412 8621
internal_value=-0.00301872 0.0202561 0.0169293 0.0295466 0.0392996 -0.0467006 -0.0195829 -0.0293298 -5.3984e-05 -0.0096057 -0.003992 -0.0428735 -0.0596319 -0.0449053 -0.0521488
internal_weight=2213.6 1438.53 1426.42 1127.94 1002.59 775.064 261.32 298.487 171.865 154.754 114.895 183.592 513.744 125.344 89.4552
internal_count=223488 83617 83469 47737 38597 139871 29103 35732 19366 17647 9007 26725 110768 9140 9737
is_linear=0
shrinkage=0.0900493


Tree=14
num_leaves=12
num_cat=0
split_feature=107 133 11 33 116 22 22 27 133 21 21
split_gain=254.363 135.268 92.1741 32.4335 27.8109 13.3213 21.4924 5.70379 3.35444 1.68222 0.312702
threshold=105.50000000000001 8.0000000000000018 130.33000000000001 85527.335000000006 642.80500000000018 155700.93000000002 9058.6700000000019 4.5000000000000009 1.0000000180025095e-35 1.0000000180025095e-35 1.0000000180025095e-35
decision_type=2 10 2 2 10 2 2 2 8 2 2
left_child=1 2 3 4 -1 6 -4 10 -7 -9 -2
right_child=7 -3 5 -5 -6 8 -8 9 -10 -11 -12
leaf_value=0.035269557260693543 0 0.26984917007778764 0.0097321612316096564 -0.041691703899123841 -0.016852562335287567 -0.051145649925633516 -0.026363956528123546 0 0 -0.065479237808719809 -0.033996205902395896
leaf_weight=933.95166681706905 12.729464876931159 15.4682335332036 229.29867680347525 47.034096876392141 79.434482370270416 95.980074222898111 285.22277742950246 2.854990546591579 3.9154512309469274 397.7816423913464 98.017651614034548
leaf_count=22466 1454 161 24491 3883 4399 16705 39549 517 243 94017 15603
internal_value=-0.00292764 0.0137211 0.0109197 0.0271329 0.0307711 -0.016406 -0.00951081 -0.0586456 -0.0473877 -0.0649856 -0.0316497
internal_weight=2201.69 1690.31 1674.84 1060.42 1013.39 614.417 514.521 511.384 99.8955 400.637 110.747
internal_count=223488 111897 111736 30748 26865 80988 64040 111591 16948 94534 17057
is_linear=0
shrinkage=0.0900493


Tree=15
num_leaves=12
num_cat=0
split_feature=107 133 52 33 22 137 108 96 98 21 133
split_gain=287.901 86.279 58.8415 64.3372 52.9387 12.1962 5.03216 3.94832 3.7121 3.05714 2.09389
threshold=81.500000000000014 8.0000000000000018 57768.485000000008 32712.020000000004 23734.310000000001 6739.9400000000014 1.0000000180025095e-35 1.0000000180025095e-35 1.0000000180025095e-35 1.0000000180025095e-35 8.0000000000000018
decision_type=2 10 2 2 2 8 2 2 2 2 8
left_child=1 2 3 4 -1 7 9 -2 -5 -7 -4
right_child=5 -3 10 8 -6 6 -8 -9 -10 -11 -12
leaf_value=0.033343855669150969 -0.050790487117471465 0.21189545901473941 -0.062722925114261904 -0.049281509854390101 -0.01542171608125221 -0.0023115545099524001 0 -0.0078616730334563501 0 -0.06350071934785885 0
leaf_weight=1129.7820751783438 36.223788446513936 17.549742376431823 71.966033090138808 102.3113999501802 201.77915194956586 20.793722599977627 19.904680287465453 96.045758341206238 7.1403229995630673 477.93397696339525 8.0397132202051562
leaf_count=36739 5951 147 14789 7802 20827 2547 4636 15638 589 112831 992
internal_value=-0.00278863 0.018257 0.0155893 0.0199866 0.0256442 -0.0530944 -0.0599225 -0.0229967 -0.0447214 -0.061768 -0.057756
internal_weight=2189.47 1538.57 1521.02 1441.01 1331.56 650.902 518.632 132.27 109.452 498.728 80.0057
internal_count=223488 81885 81738 65957 57566 141603 120014 21589 8391 115378 15781
is_linear=0
shrinkage=0.0900493


Tree=16
num_leaves=18
num_cat=0
split_feature=107 133 18 2 138 52 22 21 18 153 98 94 84 18 21 98 140
split_gain=283.467 36.8346 37.1953 22.3507 16.8604 21.9721 13.2032 12.801 7.92933 11.1922 9.21118 7.828 6.27309 1.82823 1.5944 1.2955 0.212475
threshold=61.500000000000007 1.0000000180025095e-35 3244.5750000000003 1.0000000180025095e-35 2988.0650000000005 70060.500000000015 1276.9200000000003 1.0000000180025095e-35 10043.330000000002 439.87500000000006 1.0000000180025095e-35 1.0000000180025095e-35 1.5000000000000002 39823.180000000008 1.0000000180025095e-35 1.0000000180025095e-35 6858.2450000000008
decision_type=2 10 2 2 8 2 2 2 2 10 2 2 2 2 2 2 8
left_child=1 2 3 7 12 11 -5 -1 9 -4 -10 14 13 16 -6 -14 -2
right_child=4 -3 8 6 5 -7 -8 -9 10 -11 -12 -13 15 -15 -16 -17 -18
leaf_value=0.040100524669350768 0.027824890325659907 0.12983766336052194 0.027305482708543681 0.044545373049589311 0 -0.07755353287738799 0.0065240799247463224 0 -0.022909176919987416 -0.021017344858053524 0.042696899066005767 0 -0.035986117997634834 -0.0050776285462350457 -0.044195123665793701 0 0
leaf_weight=78.385332009755075 21.138595056021586 25.098457825370133 108.22967705293559 530.14719700184651 17.202113259816542 214.64488257304765 116.65186872798949 270.43407027423382 197.12702251668088 50.865553170675412 14.064125195844097 52.789418952539563 55.657458653207868 20.555295099271461 381.89687156793661 5.2059715727809808 18.653453337494284
leaf_count=527 1740 294 4452 17721 1535 65559 4430 2491 21736 4571 1514 9654 8442 3366 73178 742 1536
internal_value=-0.00270824 0.0215341 0.0191346 0.0282461 -0.0459936 -0.0518049 0.0383356 0.00831702 -0.00429109 0.00929817 -0.0164211 -0.0385081 -0.0105454 0.00464255 -0.04286 -0.0318938 0.0194964
internal_weight=2178.75 1391 1365.9 995.618 787.744 666.533 646.799 348.819 370.286 159.095 211.191 451.888 121.211 60.3473 399.099 60.8634 39.792
internal_count=223488 57736 57442 25169 165752 149926 22151 3018 32273 9023 23250 84367 15826 6642 74713 9184 3276
is_linear=0
shrinkage=0.0900493


Tree=17
num_leaves=14
num_cat=0
split_feature=107 133 33 11 127 133 32 52 28 98 94 21 98
split_gain=218.143 51.9765 63.7322 39.9063 41.349 23.5251 12.195 19.2114 12.648 4.42006 4.38834 3.58157 2.39958
threshold=81.500000000000014 8.0000000000000018 23099.555000000004 534.1450000000001 139.50000000000003 8.0000000000000018 1.0000000180025095e-35 78642.700000000012 6753.5050000000001 1.0000000180025095e-35 1.0000000180025095e-35 1.0000000180025095e-35 1.0000000180025095e-35
decision_type=2 10 2 2 8 8 2 2 2 2 2 2 2
left_child=1 2 3 4 -1 -5 7 8 12 -4 -10 -9 -2
right_child=6 -3 9 5 -6 -7 -8 11 10 -11 -12 -13 -14
leaf_value=-0.042006254712482129 -0.0013327079905686365 0.15361081500725166 -0.050133342457528429 -0.029433486632943959 0.028347937017649739 0.10808493329197802 -0.076067333755545571 0 -0.041091002125093645 0 0 -0.072314611852537472 0.042782786459487042
leaf_weight=66.3621350962203 77.610726484563202 20.863906405866146 125.41687706764787 171.25910614989698 1175.6425472942647 8.5152098122052831 140.33140633441508 2.8389286249876013 202.42593279271387 9.026375040644778 26.46588690765202 132.22089936444536 9.3304713882971537
leaf_count=2446 9168 147 10596 26207 41312 390 35192 514 46420 787 5700 43587 1022
internal_value=-0.00253326 0.0147613 0.0125217 0.0183382 0.0242268 -0.0200053 -0.0492823 -0.0398708 -0.0254718 -0.0456283 -0.0366011 -0.0700526 0
internal_weight=2168.31 1577.09 1556.22 1421.78 1242 179.774 591.224 450.893 315.833 134.443 228.892 135.06 86.9412
internal_count=223488 81885 81738 70355 43758 26597 141603 106411 62310 11383 52120 44101 10190
is_linear=0
shrinkage=0.0900493


Tree=18
num_leaves=18
num_cat=0
split_feature=25 131 33 107 94 81 22 21 52 141 111 18 98 142 127 18 52
split_gain=145.977 55.3682 73.4857 33.4531 32.4836 30.3906 18.0045 9.49876 7.06082 4.71531 4.34914 3.71683 3.60221 2.66722 1.16633 0.849755 0.164691
threshold=4015.9250000000006 99.705000000000013 14516.140000000001 81.500000000000014 1.0000000180025095e-35 8270.8200000000015 18289.815000000002 1.0000000180025095e-35 70060.500000000015 10.045000000000002 1.0000000180025095e-35 26595.200000000004 1.0000000180025095e-35 77418.000000000015 1236.5000000000002 30446.580000000005 78642.700000000012
decision_type=2 10 2 2 2 2 2 2 2 8 10 2 2 8 10 2 2
left_child=1 2 4 9 5 -1 -6 16 -9 11 -3 -2 -4 -11 -15 -13 -5
right_child=3 10 12 7 6 -7 -8 8 -10 13 -12 15 -14 14 -16 -17 -18
leaf_value=0.027230527390043939 0 -0.036816124231877849 -0.047970950626941886 0.010471401724780768 0.10236041745426273 -0.0080132736880329722 0 -0.044332355877285338 -0.078410460323344089 -0.017104614465762537 0 0 0 0.027396252788489363 0 -0.041803983371678906 0
leaf_weight=956.24243690306321 59.664786620531231 186.61758919921704 128.25258834450506 10.955597791587936 62.839645537547767 229.09937394713052 12.271358635043724 231.71699847467244 155.38744879886508 9.3139838071074319 7.4235577839426687 3.8673530202358952 9.5966881199274194 43.037765755085275 14.111286588944493 42.569347395794466 5.8552773105911902
leaf_count=28015 6618 27050 11227 1155 2227 22386 1600 50231 55132 949 189 643 913 3677 1469 9174 1156
internal_value=-0.00313193 0.0107271 0.0171786 -0.0420526 0.0242207 0.0200776 0.0829501 -0.0563492 -0.059254 -0.00610797 -0.0335155 -0.0191848 -0.0439589 0.00877999 0.0201765 -0.0382255 0
internal_weight=2168.82 1592.34 1398.3 576.48 1260.45 1185.34 75.111 403.915 387.104 172.565 194.041 106.101 137.849 66.463 57.1491 46.4367 16.8109
internal_count=223811 93607 66368 130204 54228 50401 3827 107674 105363 22530 27239 16435 12140 6095 5146 9817 2311
is_linear=0
shrinkage=0.0900493


Tree=19
num_leaves=17
num_cat=0
split_feature=11 52 133 31 98 2 21 21 25 25 21 153 153 147 132 144
split_gain=131.445 122.915 30.5968 23.6995 23.7392 12.7218 6.44534 3.84433 8.44308 3.75872 3.7573 1.90971 2.01171 0.975744 0.723149 0.638773
threshold=599.87500000000011 33973.920000000006 8.0000000000000018 511.19500000000011 1.0000000180025095e-35 1.0000000180025095e-35 1.0000000180025095e-35 1.0000000180025095e-35 2337.7050000000004 5949.5750000000007 1.0000000180025095e-35 3782.9250000000006 13143.465000000002 -4247.1949999999988 1.0000000180025095e-35 182.68000000000004
decision_type=2 2 8 2 2 2 2 2 2 2 2 8 8 10 10 8
left_child=1 3 7 4 5 -1 -6 -2 -9 -4 -3 13 -13 -5 -12 -10
right_child=2 10 9 11 6 -7 -8 8 15 -11 14 12 -14 -15 -16 -17
leaf_value=0.0025599025557233282 0 0 0.079354026481091397 -0.0097465206030384246 0.13829819013686581 0.023881550259914477 0.044136959359122999 -0.028833233427452039 -0.064764582048354363 0 -0.067051906560062324 0 -0.045613449792874218 0.0040516472436213377 0 -0.016033556217513588
leaf_weight=362.55257151182741 6.2966893033590159 14.338910262798889 12.520712938625367 81.381917708087713 16.334029242862016 905.47112041641958 50.517748784972355 158.31784735433757 264.88168639759533 8.5857467593159509 157.75698747299612 27.570118300849572 27.424784897360951 35.62088838359341 2.3765842111315569 26.158579941606149
leaf_count=3108 872 2143 495 8361 271 40764 2558 29416 81597 1014 38580 4404 3467 1763 628 4370
internal_value=-0.00298275 0.00865693 -0.0447919 0.0171653 0.0213353 0.0181113 0.0751391 -0.0501928 -0.0512222 0.0501095 -0.0621404 -0.0127924 -0.0277503 -0.00213665 -0.0662827 -0.0618498
internal_weight=2158.11 1681.35 476.761 1506.87 1334.88 1268.02 66.8518 455.655 449.358 21.1065 174.472 171.998 54.9949 117.003 160.134 291.04
internal_count=223811 106047 117764 64696 46701 43872 2829 116255 115383 1509 41351 17995 7871 10124 39208 85967
is_linear=0
shrinkage=0.0900493


Tree=20
num_leaves=13
num_cat=0
split_feature=51 56 131 33 72 22 26 111 149 98 138 147
split_gain=304.483 46.1249 40.9177 43.5906 23.5125 17.8287 7.88393 5.97637 5.65748 2.14388 0.432006 0.274598
threshold=1.0000000180025095e-35 6084.3250000000016 263.92500000000007 43527.930000000008 1056.1100000000004 57066.410000000011 1.0000000180025095e-35 1.0000000180025095e-35 1345.5000000000002 1.0000000180025095e-35 2988.0650000000005 -20221.229999999996
decision_type=2 2 10 2 2 2 2 8 8 2 10 8
left_child=1 2 3 5 6 -1 -2 -3 11 -5 -6 -4
right_child=4 7 8 9 10 -7 -8 -9 -10 -11 -12 -13
leaf_value=0.030856622283918139 -0.013069479301567996 -0.055860572012391599 0.014906695882760387 -0.041669981327446114 0.043833905231927449 -0.0010890430628853046 -0.075739322555975042 0 -0.031755180034970069 0 0 0
leaf_weight=1222.5956482668407 34.077420429559425 77.478599977213889 8.7969918872695398 76.909403586527333 6.4146220239344967 132.79251387203112 409.99763402133249 11.821852204622699 130.63934285799041 6.8682904487941405 7.1380737514700741 23.758112392155454
leaf_count=40591 4114 14531 1739 7300 359 17725 112344 1209 19643 730 1583 1943
internal_value=-0.0027773 0.0146642 0.0183665 0.0233546 -0.0679973 0.0274314 -0.0718848 -0.0466643 -0.0230154 -0.0373037 0.0274982 0
internal_weight=2149.29 1691.66 1602.36 1439.17 457.628 1355.39 444.075 89.3005 163.194 83.7777 13.5527 32.5551
internal_count=223811 105411 89671 66346 118400 58316 116458 15740 23325 8030 1942 3682
is_linear=0
shrinkage=0.0900493


Tree=21
num_leaves=18
num_cat=0
split_feature=107 107 127 96 22 33 4 94 16 148 2 21 5 98 12 109 141
split_gain=133.149 29.507 27.5962 20.3787 36.951 23.1167 19.6497 18.7159 9.24004 9.16574 8.83903 6.49911 3.71677 2.07134 1.07587 0.752669 0.269908
threshold=31.500000000000004 162.50000000000003 402.50000000000006 1.0000000180025095e-35 23734.310000000001 27715.445000000003 1.0000000180025095e-35 1.0000000180025095e-35 -6785.4749999999995 23.705000000000002 1.0000000180025095e-35 1.0000000180025095e-35 40.500000000000007 1.0000000180025095e-35 4.5000000000000009 1.0000000180025095e-35 3.1800000000000002
decision_type=2 2 8 2 2 2 2 2 2 8 2 2 2 2 2 2 8
left_child=2 3 8 13 5 -5 7 12 -1 -6 -8 -12 -4 14 -2 16 -10
right_child=1 -3 6 4 9 -7 10 -9 15 -11 11 -13 -14 -15 -16 -17 -18
leaf_value=0.02947693805463723 0 -0.062729265903533907 0.038883115904893253 0.019675431032485022 -0.043075700389688464 -0.045609802532526902 -0.028176980532957637 0.093109080196476096 0 0 0.053096426787216676 0 0.020505548194589399 0 -0.044251600575483337 -0.0044824072249969385 -0.033250898266293606
leaf_weight=28.757472692988813 6.1910387221723786 163.58913982030936 216.66278485557996 292.91326975030825 212.479526842013 47.994871598202735 67.966188371181488 40.962557395687327 25.553368571447209 42.160678064450622 23.57243762537837 69.281641340814531 526.39673221553676 8.6931092604063434 227.15667901770212 66.23010318283923 72.032255335710943
leaf_count=587 444 52844 4537 33656 56213 9486 387 879 905 6601 434 1676 13501 1164 36510 2584 1403
internal_value=-0.00265041 -0.0267464 0.0182112 -0.0191566 -0.0092787 0.0091754 0.0246794 0.0305963 -0.0113988 -0.0354864 -0.00169135 0.0135235 0.026461 -0.0416351 -0.0432357 -0.021183 -0.0282408
internal_weight=2138.59 1001.18 1137.42 837.589 595.548 340.908 944.842 784.022 192.573 254.64 160.82 92.8541 743.06 242.041 233.348 163.816 97.5856
internal_count=223811 196918 26893 144074 105956 43142 21414 18917 5479 62814 2497 2110 18038 38118 36954 4892 2308
is_linear=0
shrinkage=0.0900493


Tree=22
num_leaves=15
num_cat=0
split_feature=107 33 21 22 96 153 153 98 11 153 94 108 94 21
split_gain=124.125 40.4998 25.4172 29.4988 40.8218 13.5769 12.3833 6.48756 5.48525 4.30158 2.6617 2.75728 2.25974 1.24964
threshold=87.500000000000014 27715.445000000003 1.0000000180025095e-35 1276.9200000000003 1.0000000180025095e-35 604.09500000000014 1131.9450000000002 1.0000000180025095e-35 599.87500000000011 4779.9750000000013 1.0000000180025095e-35 1.0000000180025095e-35 1.0000000180025095e-35 1.0000000180025095e-35
decision_type=2 2 2 2 2 10 10 2 2 8 2 2 2 2
left_child=1 2 9 4 -4 8 -5 -3 -2 -1 11 13 -10 -7
right_child=5 7 3 6 -6 10 -8 -9 12 -11 -12 -13 -14 -15
leaf_value=0.075725407275456416 0 -0.047675114286887463 0.0019368701735065737 0 0.04295998360810302 0 -0.032088918449331212 0 -0.042749390804995208 0.030540484327520451 -0.014694841817351549 0 0 -0.06156543085424461
leaf_weight=45.885400424245745 69.110480120056309 110.91319714812562 529.17089892877266 382.16506581939757 334.5235759364441 3.1206274405121794 132.53017086465843 9.3905924602877331 47.245005241245963 138.67526924260892 38.856323558255099 11.818558238912372 6.8306430648080996 269.78593521483708
leaf_count=1069 10560 11218 11268 29107 12931 576 21412 832 12439 1745 12112 3733 1526 93283
internal_value=-0.00248653 0.00851822 0.0126009 0.00801932 0.0183303 -0.0447584 -0.00850412 -0.0407971 -0.0143934 0.0443695 -0.0549791 -0.0589801 -0.0356429 -0.0609113
internal_weight=2130.02 1683.25 1562.95 1378.39 863.694 446.768 514.695 120.304 123.186 184.561 323.581 284.725 54.0756 272.907
internal_count=223811 89582 77532 74718 24199 134229 50519 12050 24525 2814 109704 97592 13965 93859
is_linear=0
shrinkage=0.0900493


Tree=23
num_leaves=19
num_cat=0
split_feature=153 33 21 131 25 2 20 131 11 145 142 98 98 21 110 129 94 94
split_gain=67.3783 37.1867 23.7598 22.6295 22.0035 17.1198 6.52465 7.88157 5.0699 4.11458 2.95804 1.98851 1.9179 1.52866 1.33946 1.20246 0.860886 0.502042
threshold=955.99500000000012 37856.230000000003 1.0000000180025095e-35 64.515000000000015 5949.5750000000007 1.0000000180025095e-35 276.79000000000008 604.09500000000014 534.1450000000001 21.500000000000004 355858.87500000006 1.0000000180025095e-35 1.0000000180025095e-35 1.0000000180025095e-35 1.0000000180025095e-35 8.5000000000000018 1.0000000180025095e-35 1.0000000180025095e-35
decision_type=10 2 2 10 2 2 2 8 2 8 10 2 2 2 10 10 2 2
left_child=1 2 9 5 6 -4 7 13 16 -1 11 -3 15 -2 -9 -8 -6 -5
right_child=4 10 3 17 8 -7 12 14 -10 -11 -12 -13 -14 -15 -16 -17 -18 -19
leaf_value=0.074193263348633492 0.044369599112909636 -0.053929707336426901 -0.0071992646123274096 -0.035673116156120739 -0.02609720906562733 0.017485929724139981 -0.041589660747986743 -0.028945708817057565 -0.062991479318527707 0.029208873285691536 0 0 0 0 0 0 0 0
leaf_weight=42.237946389010176 6.1340315961278966 81.064357078168541 287.23278170172125 88.846098804380745 69.638460247893818 822.19023695122451 80.364775195717812 95.365512179443613 142.8986217485508 147.68800834566355 5.6433447310701004 7.1283644981449461 11.979370703571474 201.42065208475105 4.2592722063418469 4.6865451100748023 9.6467540937010181 11.863593260059131
leaf_count=923 343 9594 2578 10725 20504 52182 16813 15430 58403 2235 1110 753 2832 23556 400 1574 2624 1232
internal_value=-0.00230599 0.00788149 0.0118025 0.00673472 -0.0272127 0.0107309 -0.013248 -0.00517039 -0.0506014 0.0417334 -0.0457788 -0.0499622 -0.0343335 0.00316323 -0.0263584 -0.0390221 -0.022644 -0.0329321
internal_weight=2120.29 1493.89 1400.06 1210.13 626.394 1109.42 404.21 307.179 222.184 189.926 93.8361 88.1927 97.0307 207.555 99.6248 85.0513 79.2852 100.71
internal_count=223811 81332 69875 66717 142479 54760 60948 39729 81531 3158 11457 10347 21219 23899 15830 18387 23128 11957
is_linear=0
shrinkage=0.0900493


Tree=24
num_leaves=17
num_cat=0
split_feature=52 107 96 153 149 94 96 21 120 64 10 0 121 0 120 141
split_gain=134.979 34.4066 24.6672 22.0616 15.7061 17.0805 14.3345 12.0049 6.18804 12.0535 5.55498 4.81933 2.58818 2.36837 2.3115 1.77891
threshold=57768.485000000008 31.500000000000004 1.0000000180025095e-35 604.09500000000014 459.50000000000006 1.0000000180025095e-35 1.0000000180025095e-35 1.0000000180025095e-35 154836.00000000003 5172.9450000000006 -1740.9399999999998 698215574.00000012 4398.7500000000009 730033287.00000012 31671.000000000004 14.875000000000002
decision_type=2 2 2 8 8 2 2 2 10 2 2 2 8 2 8 8
left_child=1 2 7 6 -4 -6 15 13 12 -10 -8 -9 -5 -1 -2 -3
right_child=14 3 4 8 5 -7 10 11 9 -11 -12 -13 -14 -15 -16 -17
leaf_value=0.046850148162000831 0 0 -0.0039051133099651347 -0.049387141720018291 0.030501682537470858 0.098571833093473574 -0.010215249981637507 -0.011994660818641239 0.0047213165752885344 -0.039551246749087221 0.030694817476958531 0.0045673533132297717 -0.020883659163604584 0.011788952132629555 -0.069879876428007998 -0.037155234433422293
leaf_weight=51.611518148332834 4.0264872962143263 45.683050570311025 61.466644240077585 84.69061121577397 309.41668921010569 40.953716538380831 15.140177173772825 218.66750147542916 142.58565468795132 67.199378274846822 163.91002760257106 376.43633603630587 177.48377107467968 90.047813778743148 221.62897905102 30.802583446493372
leaf_count=728 1265 4438 1818 16630 9364 758 2282 4327 26765 18867 14553 7413 22262 1209 88466 2235
internal_value=-0.00293528 0.00479461 0.0146396 -0.0101942 0.0324111 0.0399204 0.0100238 0.00412195 -0.0219906 -0.00769646 0.0249529 -0.000854206 -0.0318087 0.0276769 -0.068658 -0.0195786
internal_weight=2101.75 1876.1 1148.6 727.495 411.837 350.37 255.536 736.763 471.959 209.785 179.05 595.104 262.174 141.659 225.655 76.4856
internal_count=223380 133649 25617 108032 11940 10122 23508 13677 84524 45632 16835 11740 38892 1937 89731 6673
is_linear=0
shrinkage=0.0900493


Tree=25
num_leaves=13
num_cat=0
split_feature=52 107 2 33 96 56 94 123 21 133 135 98
split_gain=100.7 51.3151 55.958 26.7602 18.8741 16.6035 11.6384 11.4878 9.40024 6.84677 2.90809 2.72608
threshold=70060.500000000015 22.500000000000004 1.0000000180025095e-35 4074.9100000000003 1.0000000180025095e-35 4893.3250000000007 1.0000000180025095e-35 -1.0000000180025095e-35 1.0000000180025095e-35 8.0000000000000018 -484.99999999999994 1.0000000180025095e-35
decision_type=2 2 2 2 2 2 2 10 2 8 10 2
left_child=1 2 8 4 10 -6 7 -4 -1 -2 -3 -5
right_child=9 3 6 11 5 -7 -8 -9 -10 -11 -12 -13
leaf_value=0.014777398914709035 -0.073626138302086044 -0.030160862473183725 0.041682228965360314 -0.053044591865220293 0.0099167105017315803 -0.0338550316964219 0.087163742398788657 0.012104696061263671 -0.016961393341333574 0 0 0
leaf_weight=88.248088540509343 159.35815370886121 207.27762258553412 327.86993523593992 123.02056179905776 498.84355747746304 78.529758915072307 39.873983622994274 228.56532789207995 291.80983177945018 14.09464658750221 20.965557907591574 14.472295076469889
leaf_count=567 75424 21229 8178 22433 62144 16440 699 6102 2636 2648 2186 2694
internal_value=-0.0027455 0.00300855 0.0176346 -0.0117095 -0.00485163 0.00320731 0.0349563 0.030309 -0.00851043 -0.0683049 -0.0269035 -0.0485882
internal_weight=2092.93 1919.48 976.367 943.109 805.616 577.373 596.309 556.435 380.058 173.453 228.243 137.493
internal_count=223380 145308 18182 127126 101999 78584 14979 14280 3203 78072 23415 25127
is_linear=0
shrinkage=0.0900493


Tree=26
num_leaves=13
num_cat=0
split_feature=52 7 30 149 94 113 133 120 94 133 148 98
split_gain=82.7294 29.7426 21.8374 24.7415 22.0602 15.9864 10.5863 5.70426 4.56354 2.33513 1.33062 0.737209
threshold=78642.700000000012 4008.0250000000005 1.5000000000000002 355.50000000000006 1.0000000180025095e-35 -2068.4999999999995 1.0000000180025095e-35 182988.00000000003 1.0000000180025095e-35 1.0000000180025095e-35 14.230000000000002 1.0000000180025095e-35
decision_type=2 2 2 8 2 10 10 10 2 8 10 2
left_child=1 2 3 5 -5 -1 11 -4 -9 10 -2 -3
right_child=9 6 7 4 -6 -7 -8 8 -10 -11 -12 -13
leaf_value=-0.058389069509914154 -0.07476839860921225 -0.040347600887147034 -0.040387433492484401 0.0098648925477308469 0.054316475916628956 0 0.066352543897348043 -0.014359306486099966 0.043929246692692457 0 0 0
leaf_weight=61.545843900647014 124.94226594839711 155.22107699676417 87.975468193064444 1323.4934920703527 102.32385403220542 107.06995499937329 4.5897833541966966 68.67621834052261 10.529347052448427 12.200673695188014 5.3791172902565441 22.105567059712484
leaf_count=2853 64759 20889 16337 79917 6780 5786 101 14525 1965 2364 3199 3905
internal_value=-0.00254654 0.00212673 0.00590753 0.00934235 0.0133814 -0.0222878 -0.0320783 -0.0242864 -0.00104672 -0.0685554 -0.0726615 -0.0373216
internal_weight=2086.05 1943.53 1761.61 1594.43 1425.82 168.616 181.916 167.181 79.2056 142.522 130.321 177.327
internal_count=223380 153058 128163 95336 86697 8639 24895 32827 16490 70322 67958 24794
is_linear=0
shrinkage=0.0900493


Tree=27
num_leaves=13
num_cat=0
split_feature=52 33 56 96 94 137 120 98 153 71 107 111
split_gain=74.1982 43.688 24.2412 22.5258 13.2582 11.0164 11.0153 5.69751 5.59015 4.52638 3.60977 0.553348
threshold=78642.700000000012 7277.130000000001 1126.1200000000001 1.0000000180025095e-35 1.0000000180025095e-35 1116.6750000000004 105570.00000000001 1.0000000180025095e-35 1519.0350000000003 1.0000000180025095e-35 54.500000000000007 8.0000000000000018
decision_type=2 2 2 2 2 8 10 2 10 2 2 8
left_child=1 2 3 6 -5 -3 -1 11 10 -2 -4 -7
right_child=9 5 8 4 -6 7 -8 -9 -10 -11 -12 -13
leaf_value=0.0090235637285957515 -0.069945735166145523 0 0.0050318592212247881 0.016781649852831013 0.056273696399547289 -0.067701028195234839 -0.012524823433997682 0 -0.040771729166167024 0 -0.02096280551758135 -0.031478519636631563
leaf_weight=482.84026382560842 130.31495129270479 42.174278859631158 63.83534791902639 632.52583120961208 91.316410509869456 74.965808895765804 316.91333666874561 16.788841913221404 79.617241283063777 3.2449382296763352 72.738445916213095 72.615049815038219
leaf_count=13617 68911 2799 3207 53122 6023 18133 13503 2666 22265 1411 12047 5676
internal_value=-0.00240062 0.00187141 0.00672437 0.0109059 0.0224065 -0.0368647 0 -0.047377 -0.0207857 -0.0670992 -0.00594974 -0.0529934
internal_weight=2079.89 1946.33 1739.79 1523.6 723.842 206.544 799.754 164.37 216.191 133.56 136.574 147.581
internal_count=223380 153058 123784 86265 59145 29274 27120 26475 37519 70322 15254 23809
is_linear=0
shrinkage=0.0900493


Tree=28
num_leaves=17
num_cat=0
split_feature=33 107 2 123 22 16 16 133 21 98 17 16 10 98 98 98
split_gain=49.4017 56.8664 27.8774 17.6525 14.3637 14.8979 11.2591 8.39312 7.54273 6.05122 4.73637 4.23098 3.10321 2.48388 1.08158 0.313521
threshold=27715.445000000003 47.500000000000007 1.0000000180025095e-35 -1.0000000180025095e-35 67841.115000000005 -1615.4299999999996 -169.05499999999998 1.0000000180025095e-35 1.0000000180025095e-35 1.0000000180025095e-35 3.5000000000000004 -309.47499999999997 -341.78499999999991 1.0000000180025095e-35 1.0000000180025095e-35 1.0000000180025095e-35
decision_type=2 2 2 10 2 2 2 10 2 2 2 2 2 2 2 2
left_child=1 2 8 6 5 14 -4 10 -1 -7 15 -5 -6 -14 -3 -2
right_child=7 4 3 11 12 9 -8 -9 -10 -11 -12 -13 13 -15 -16 -17
leaf_value=0.013178266381651852 -0.059992327023292873 -0.042462141624572548 0.045485875050700821 0.01657237269564206 -0.054162884174824184 -0.0039500156700305981 0.014930440716464441 0.027092239468795434 -0.015500373281047763 0.040614600819070958 0 0 -0.025627953624504516 0 0 -0.0016328889926300607
leaf_weight=85.031783699989319 140.77376995340455 93.476381557993591 273.63985685934313 184.07889104099013 115.06270235404372 275.14720299327746 233.55806307937019 3.6059082110878071 285.25915999570861 25.908946579322219 5.8635335157159707 251.0952901460696 69.049007595167495 7.7666126420954233 8.6010766030522046 15.484471066505646
leaf_count=494 32842 15842 5801 4992 49048 54732 10217 151 2611 5136 1372 12870 20392 2012 1535 3333
internal_value=-0.00223591 0.00166978 0.0123302 0.0206703 -0.0211491 -0.0100906 0.0322784 -0.049292 -0.00780768 0 -0.0536497 0.00616451 -0.0420836 -0.0182574 -0.0395981 -0.0568273
internal_weight=2073.4 1907.67 1312.66 942.372 595.012 403.134 507.198 165.728 370.291 301.056 162.122 435.174 191.878 76.8156 102.077 156.258
internal_count=223380 185682 36985 33880 148697 77245 16018 37698 3105 59868 37547 17862 71452 22404 17377 36175
is_linear=0
shrinkage=0.0900493


Tree=29
num_leaves=14
num_cat=0
split_feature=33 52 52 123 2 10 133 133 110 28 148 98 127
split_gain=45.7724 42.4752 73.1484 24.343 22.9023 11.9112 8.34204 5.2043 4.70189 4.72369 1.70275 0.487284 0.421398
threshold=10740.040000000003 83235.010000000009 25089.535000000003 1.0000000180025095e-35 1.0000000180025095e-35 -341.78499999999991 8.0000000000000018 8.0000000000000018 1.0000000180025095e-35 2662.3350000000005 71.080000000000013 1.0000000180025095e-35 139.50000000000003
decision_type=2 2 2 10 2 2 8 8 10 2 10 2 8
left_child=1 2 3 4 -1 -5 12 10 9 -2 11 -3 -4
right_child=8 7 6 5 -6 -7 -8 -9 -10 -11 -12 -13 -14
leaf_value=-0.0017430394581598176 -0.025781067600830265 -0.069116858154143021 0 -0.019750268290435274 0.029522483379012511 0.005649528424917648 0 0 0 -0.064453725041695428 0 0 -0.06896090158621139
leaf_weight=233.87495802808553 116.42349152010866 74.286347553017549 8.9935236552264524 201.6431588488631 655.9067303155316 554.5205266866833 8.9468179754912835 4.703744050813838 2.7052696836180976 87.674464513896964 1.2686669708928082 7.4364528168225652 109.43190669105388
leaf_count=1734 10044 45201 1704 31682 38797 22391 664 765 408 33808 813 4322 31047
internal_value=-0.00207399 0.00219712 0.00544715 0.0107579 0.0208608 -0.000612308 -0.0594942 -0.0581587 -0.0422347 -0.0446427 -0.0638159 -0.0655836 -0.0661029
internal_weight=2067.82 1861.01 1773.32 1645.95 889.782 756.164 127.372 87.6952 206.803 204.098 82.9915 81.7228 118.425
internal_count=223380 179120 128019 94604 40531 54073 33415 51101 44260 43852 50336 49523 32751
is_linear=0
shrinkage=0.0900493


Tree=30
num_leaves=13
num_cat=0
split_feature=25 111 108 153 4 56 125 94 98 108 132 145
split_gain=50.2339 27.036 25.9882 18.911 17.6531 14.0498 10.3481 8.98886 4.53653 0.969653 0.925735 0.374471
threshold=8112.3950000000013 8.0000000000000018 1.0000000180025095e-35 1131.9450000000002 1.0000000180025095e-35 69.840000000000018 -3900.3199999999993 1.0000000180025095e-35 1.0000000180025095e-35 1.0000000180025095e-35 1.0000000180025095e-35 49.500000000000007
decision_type=2 10 2 10 2 2 8 2 2 2 10 8
left_child=1 2 3 4 -1 -5 -4 9 11 10 -2 -9
right_child=7 -3 6 5 -6 -7 -8 8 -10 -11 -12 -13
leaf_value=0.010453116552742099 -0.04101254669746926 0.10211624124140795 0 -0.0042911743067416703 -0.020117934796921172 -0.046545032546102656 0.14917191547928446 -0.011417260916602414 0.075582898014184274 0 0 0
leaf_weight=1189.5566440857947 278.64492631505709 21.554698023945093 4.4293001615442336 267.80292103905231 167.2559541601222 95.67929282062687 12.435789037146607 25.679499047342691 5.1333066254155701 6.2762928219744927 2.5283228775952002 2.8259441489353767
leaf_count=45476 95636 153 1169 37736 3181 24870 1648 8749 1472 2591 892 307
internal_value=-0.0016285 0.00415412 0.00263562 0.00126832 0.00637294 -0.0166381 0.110293 -0.0344485 0 -0.0397176 -0.0405017 -0.00397775
internal_weight=2079.8 1758.71 1737.16 1720.29 1356.81 363.482 16.8651 321.088 33.6387 287.45 281.173 28.5054
internal_count=223880 114233 114080 111263 48657 62606 2817 109647 10528 99119 96528 9056
is_linear=0
shrinkage=0.0900493


Tree=31
num_leaves=14
num_cat=0
split_feature=64 31 98 25 2 21 149 124 108 137 25 98 25
split_gain=39.7176 24.4417 20.8987 13.6488 12.9987 12.4324 5.02502 3.27985 2.17231 2.13996 2.10871 0.526042 0.374223
threshold=12605.415000000003 511.19500000000011 1.0000000180025095e-35 8112.3950000000013 1.0000000180025095e-35 1.0000000180025095e-35 631.50000000000011 1586.2800000000002 1.0000000180025095e-35 57981.580000000009 8112.3950000000013 1.0000000180025095e-35 4944.5300000000016
decision_type=2 2 2 2 2 2 10 10 2 8 2 2 2
left_child=1 2 3 4 -1 -4 -2 8 11 -5 -7 -3 -9
right_child=6 7 5 9 -6 10 -8 12 -10 -11 -12 -13 -14
leaf_value=-0.0076885099369192432 0 -0.031524396562183185 0.10798428212377587 -0.02559192237801055 0.011493543181791212 0.028416425830325453 -0.053962979280977895 0.0082478699640737025 0 0 0 0 -0.0116060105664749
leaf_weight=367.88326041493565 30.057939524063841 193.7782079615863 22.774872885085642 134.92198247998022 1042.7692082682624 62.432978177326731 122.74398081470281 23.709987293113954 6.5838477251818395 26.857062118477188 13.851080918218939 16.885807557031512 8.7122370896395278
leaf_count=3162 5293 45465 486 41567 57850 4009 42325 3694 1837 6168 3985 4448 3591
internal_value=-0.00149357 0.00183137 0.00595553 0.00313501 0.00620314 0.0461222 -0.045598 -0.0240663 -0.0280513 -0.02099 0.0210375 -0.0299075 0
internal_weight=2073.96 1921.16 1671.49 1572.43 1410.65 99.0589 152.802 249.67 217.248 161.779 76.2841 210.664 32.4222
internal_count=223880 176262 117227 108747 61012 8480 47618 59035 51750 47735 7994 49913 7285
is_linear=0
shrinkage=0.0900493


Tree=32
num_leaves=13
num_cat=0
split_feature=52 52 7 108 96 133 21 98 21 132 21 21
split_gain=56.5807 89.5985 23.7808 23.4236 15.5148 12.3269 10.0878 3.36831 1.54435 0.518978 0.324063 0.162582
threshold=70060.500000000015 14076.585000000001 4008.0250000000005 1.0000000180025095e-35 1.0000000180025095e-35 1.0000000180025095e-35 1.0000000180025095e-35 1.0000000180025095e-35 1.0000000180025095e-35 1.0000000180025095e-35 1.0000000180025095e-35 1.0000000180025095e-35
decision_type=2 2 2 2 2 8 2 2 2 10 2 2
left_child=1 2 3 4 -1 9 -4 -8 -3 10 -2 -7
right_child=5 8 6 -5 -6 11 7 -9 -10 -11 -12 -13
leaf_value=0.00084589908618953825 0 0 0.039480489485985155 0.11440645034036753 0.019030215765717284 0 -0.037141438786018666 0 -0.06814434029165406 0 -0.070490256357200506 0.014069045413470708
leaf_weight=831.69788297940977 1.2898155064322043 9.1837730992119742 12.10695990314707 17.233425847720355 786.11814844387118 7.4357151845470071 131.10435126943048 20.677409154712223 135.67206875665579 1.0800870520761225 111.49473256035708 5.4368258105823752
leaf_count=25404 453 1052 443 2194 61547 1580 17596 3583 33845 715 74316 1152
internal_value=-0.00139902 0.00221815 0.00792078 0.0113709 0.00993866 -0.0595182 -0.0238868 -0.031852 -0.0653145 -0.0693337 -0.0699258 0
internal_weight=2070.53 1943.79 1798.94 1635.05 1617.82 126.737 163.889 151.782 144.856 113.865 112.785 12.8725
internal_count=223880 145664 110767 89145 86951 78216 21622 21179 34897 75484 74769 2732
is_linear=0
shrinkage=0.0900493


Tree=33
num_leaves=19
num_cat=0
split_feature=107 33 7 2 98 127 135 135 129 22 94 21 108 153 98 98 148 127
split_gain=46.2948 14.8736 12.4369 15.5524 14.0998 12.3843 11.2403 8.4319 7.01449 5.59875 5.29098 5.2289 5.18067 5.25742 4.66386 2.69163 2.63152 1.052
threshold=54.500000000000007 14516.140000000001 389.26500000000004 1.0000000180025095e-35 1.0000000180025095e-35 2993.5000000000005 -1017.9999999999999 -591.99999999999989 2.5000000000000004 38462.235000000008 1.0000000180025095e-35 1.0000000180025095e-35 1.0000000180025095e-35 604.09500000000014 1.0000000180025095e-35 1.0000000180025095e-35 32.600000000000001 3198.5000000000005
decision_type=2 2 2 2 2 10 8 8 8 2 2 2 2 8 2 2 8 8
left_child=2 5 7 6 9 8 -4 11 15 -5 -10 -1 13 -7 -3 -2 -13 -9
right_child=1 14 3 4 -6 12 -8 17 10 -11 -12 16 -14 -15 -16 -17 -18 -19
leaf_value=0.024667808409550601 -0.038384328027889887 -0.068603483342782032 0.012463030954099657 0.018974923850356002 0.07043176535028299 -0.0015625429505352934 -0.027744606346953311 0 -0.0023698037707032154 -0.0016489256576670223 0.037888750101686387 -0.0035386404341157169 5.0341191229860388e-05 -0.052405534237235832 0 0 -0.02134990641081911 0.017035217537538172
leaf_weight=23.697927423054352 56.716614646953531 71.853230637323577 98.34709787927568 578.60277559992392 45.312790686264634 39.578749780426733 109.95912257768214 35.013550353236496 229.87244580034167 87.892421200522222 27.819034692482091 202.76898562372662 6.4749097598250946 109.19905336160446 10.381763424607923 6.7626739020925006 196.99976617121138 128.76330473413691
leaf_count=407 19112 31976 819 19128 1757 8062 600 1004 58474 9473 5474 10082 2004 43031 3444 2000 4175 2858
internal_value=-0.00127615 -0.0235513 0.00672461 0.0133383 0.0198208 -0.0161798 -0.00687512 -0.00295895 -0.00457479 0.0156533 0.000577453 -0.0102172 -0.0373867 -0.0416912 -0.0605627 -0.0313375 -0.0133597 0.013301
internal_weight=2066.02 558.658 1507.36 920.114 711.808 476.423 208.306 587.244 321.171 666.495 257.691 423.467 155.253 148.778 82.235 63.4793 399.769 163.777
internal_count=223880 173577 50303 31777 30358 138157 1419 18526 85060 28601 63948 14664 53097 51093 35420 21112 14257 3862
is_linear=0
shrinkage=0.0900493


Tree=34
num_leaves=18
num_cat=0
split_feature=64 33 96 16 4 94 98 138 31 150 21 24 22 138 150 121 129
split_gain=37.861 19.2457 17.2384 11.7147 23.0939 11.1911 6.86042 7.20777 4.52672 4.15294 3.56989 2.57135 2.3586 2.04434 1.30984 0.823826 0.360296
threshold=1272.2750000000003 49335.370000000003 1.0000000180025095e-35 -2973.7899999999995 1.0000000180025095e-35 1.0000000180025095e-35 1.0000000180025095e-35 14550.930000000002 1.0000000180025095e-35 517.47000000000014 1.0000000180025095e-35 1.0000000180025095e-35 -3747.6049999999996 9445.505000000001 517.47000000000014 9563.8650000000016 5.5000000000000009
decision_type=2 2 2 2 2 2 2 8 2 8 2 2 2 10 10 8 10
left_child=1 2 3 4 -1 8 7 15 -4 -3 -11 -5 -7 14 -8 16 -2
right_child=6 9 5 11 -6 12 13 -9 -10 10 -12 -13 -14 -15 -16 -17 -18
leaf_value=0.027494161199304284 -0.03528232427380814 0 0.014664450422061881 -0.0063880346607890119 -0.021173732603254943 0 0 -0.049844280088438643 -0.0023544497555487392 0 -0.057136591089431088 -0.025719894427125439 0.051775875973807874 -0.0072419298655600275 0.068855065493647574 -0.0062829929893311381 0
leaf_weight=230.99909926921828 30.528504636546131 10.32043302495731 555.12315439386293 447.96280669386033 110.28489601641195 14.861311536398714 9.5648326844675449 145.17956825514557 113.90094703726936 25.047655383008532 53.745254644716624 93.138253945624456 83.880945324897766 21.058407360687852 4.2667561257258049 110.67554739047773 3.0729112721164702
leaf_count=5400 7969 1895 39401 13154 1823 900 1022 59492 21544 2500 15018 17403 6386 8570 850 19603 950
internal_value=-0.00120345 0.0038653 0.00628531 -0.00189666 0.0105705 0.0162012 -0.0295348 -0.0341817 0.0111664 -0.0359616 -0.0433693 -0.0105096 0.0457263 0 0.0319919 -0.0153631 -0.0324208
internal_weight=2063.61 1739.26 1650.15 882.385 341.284 767.766 324.347 289.457 669.024 89.1133 78.7929 541.101 98.7423 34.89 13.8316 144.277 33.6014
internal_count=223880 125424 106011 37780 7223 68231 98456 88014 60945 19413 17518 30557 7286 10442 1872 28522 8919
is_linear=0
shrinkage=0.0900493


Tree=35
num_leaves=12
num_cat=0
split_feature=64 33 52 108 133 131 96 133 98 152 21
split_gain=28.882 25.5259 55.5266 20.5733 14.7653 11.5937 11.0336 4.27105 2.09759 1.27898 0.953197
threshold=12605.415000000003 23099.555000000004 33973.920000000006 1.0000000180025095e-35 1.0000000180025095e-35 510.25500000000005 1.0000000180025095e-35 1.0000000180025095e-35 1.0000000180025095e-35 7.5000000000000009 1.0000000180025095e-35
decision_type=2 2 2 2 8 8 2 10 2 8 2
left_child=1 2 3 6 10 -5 -1 8 -3 -2 -4
right_child=9 7 4 5 -6 -7 -8 -9 -10 -11 -12
leaf_value=0.0003154792265837334 -0.047146763652854085 -0.042610322674078389 0 0.15163214010873549 0.025372433918273752 0 0.015659704364261496 0.0019338653619093121 0 -0.0048072751904048626 -0.061336876245513136
leaf_weight=841.67725375364535 107.88221185386647 122.7207122045802 1.9345133204478759 11.899261323385874 10.93705272907391 6.788140785181894 786.64936087303795 3.1414846712723365 14.568736060522495 30.360795816872269 121.8358114445582
leaf_count=24318 44095 29618 459 1060 1262 757 53666 134 2760 3523 62228
internal_value=-0.00118659 0.00148153 0.0046042 0.00936994 -0.0502581 0.102138 0.00798196 -0.0349884 -0.038754 -0.0408632 -0.0603502
internal_weight=2060.4 1922.15 1781.72 1647.01 134.707 18.6874 1628.33 140.431 137.289 138.243 123.77
internal_count=223880 176262 143750 79801 63949 1817 77984 32512 32378 47618 62687
is_linear=0
shrinkage=0.0900493


Tree=36
num_leaves=13
num_cat=0
split_feature=52 2 153 133 39 139 21 56 118 127 98 132
split_gain=116.111 18.4834 17.0917 11.8259 8.65686 4.70786 3.79524 3.20762 1.72129 1.71069 1.55091 0.222074
threshold=1.0000000180025095e-35 1.0000000180025095e-35 1953.0450000000003 1.0000000180025095e-35 58650.585000000006 105.66500000000001 1.0000000180025095e-35 276.34500000000008 17094.585000000003 3198.5000000000005 1.0000000180025095e-35 1.0000000180025095e-35
decision_type=2 2 10 8 2 8 2 2 10 8 2 10
left_child=1 6 4 11 5 -3 -1 9 -9 -4 -6 -2
right_child=3 2 7 -5 10 -7 -8 8 -10 -11 -12 -13
leaf_value=0.001960709235381069 -0.061332082972952347 0.022492129314608474 0.0050401443466347477 0 -0.024329978912339959 0.0054964449312993099 -0.015841820847430913 -0.028685382470226676 0 -0.010518422444884533 0 0
leaf_weight=91.099140015430748 255.41786028211936 797.45811466604937 138.16568288195413 29.690012061386369 40.815697937970981 241.18961281632073 282.94468597415835 62.288507638149895 7.0003641279181457 92.152339566731825 7.0245934505946925 2.7395894774235776
leaf_count=581 111749 38271 17934 4248 4496 7284 2590 18149 3049 13750 605 1162
internal_value=-0.00173818 0.00674042 0.0116722 -0.0547874 0.017026 0.0189444 -0.0104392 -0.00639249 -0.0233069 0 -0.0158391 -0.0609504
internal_weight=2047.99 1760.14 1386.09 287.847 1086.49 1038.65 374.044 299.607 69.2889 230.318 47.8403 258.157
internal_count=223868 106709 103538 117159 50656 45555 3171 52882 21198 31684 5101 112911
is_linear=0
shrinkage=0.0900493


Tree=37
num_leaves=10
num_cat=0
split_feature=133 52 21 22 96 120 153 152 126
split_gain=27.1523 28.3928 9.81826 13.0683 15.8345 8.32413 3.60737 2.13063 0.155304
threshold=8.0000000000000018 70060.500000000015 1.0000000180025095e-35 38462.235000000008 1.0000000180025095e-35 1296076.9900000002 604.09500000000014 1.0000000180025095e-35 3.2500000000000004
decision_type=10 2 2 2 2 8 8 8 10
left_child=1 2 5 4 -4 -1 -5 8 -3
right_child=-2 7 3 6 -6 -7 -8 -9 -10
leaf_value=0.048262973140895879 0.088022429676347519 -0.058322903221248355 -0.0091119629233959668 -0.0061256739267002477 0.0098877949217102603 0.0048241537981482414 -0.032807473291842089 -0.0030730698157325786 0
leaf_weight=53.899863622267731 25.539785162545741 77.110135444323532 702.9502578007523 125.43322275776882 714.55327195225982 186.02074700221419 133.4424226761912 24.231466245430056 1.2953007473261084
leaf_count=1576 186 69035 27243 15372 55126 4193 42114 7749 1274
internal_value=-0.00160677 -0.00299282 -0.000295129 -0.00294235 0.000181728 0.0164505 -0.0215192 -0.0488812 -0.0577097
internal_weight=2044.48 2018.94 1916.3 1676.38 1417.5 239.921 258.876 102.637 78.4054
internal_count=223868 223682 145624 139855 82369 5769 57486 78058 70309
is_linear=0
shrinkage=0.0900493


Tree=38
num_leaves=11
num_cat=0
split_feature=52 52 2 10 147 12 94 21 21 72
split_gain=23.0242 69.9667 14.8065 12.9458 9.91266 7.45939 4.56845 4.36771 2.82983 2.29219
threshold=70060.500000000015 1.0000000180025095e-35 1.0000000180025095e-35 -552.77999999999986 -16500.729999999996 4.5000000000000009 1.0000000180025095e-35 1.0000000180025095e-35 1.0000000180025095e-35 1214.5950000000003
decision_type=2 2 2 2 8 2 2 2 2 2
left_child=1 2 8 6 -5 -2 -4 -3 -1 -7
right_child=5 7 3 4 -6 9 -8 -9 -10 -11
leaf_value=0.00056462959289917028 0.029440819392305806 0 -0.010509477986593421 -0.0088263052159191224 0.017897126943963108 -0.052788236640042278 0.020608060379141563 -0.058281395848874436 -0.014127570806458158 0
leaf_weight=91.507176487706602 3.0845561743481076 11.914497791673055 262.19378309533931 104.79546991898678 996.36857672978658 94.24982978933258 37.0004540795926 157.61297385732178 279.17184387892485 1.398053518438245
leaf_count=581 600 1222 44410 17301 36488 76673 5339 37857 2590 807
internal_value=-0.0014792 0.000486389 0.00599542 0.01037 0.0149812 -0.0436795 -0.00525078 -0.054335 -0.00942645 -0.0505421
internal_weight=2039.3 1940.56 1771.04 1400.36 1101.16 98.7324 299.194 169.527 370.679 95.6479
internal_count=223868 145788 106709 103538 53789 78080 49749 39079 3171 77480
is_linear=0
shrinkage=0.0900493


Tree=39
num_leaves=11
num_cat=0
split_feature=133 52 8 149 74 130 98 97 132 98
split_gain=21.7459 35.7751 26.7219 35.546 29.2675 10.5042 7.08987 5.40449 2.30036 1.8739
threshold=8.0000000000000018 53160.355000000003 11970.990000000002 1345.5000000000002 960.79500000000007 1.5000000000000002 1.0000000180025095e-35 54.500000000000007 1.0000000180025095e-35 1.0000000180025095e-35
decision_type=10 2 2 8 2 8 2 2 8 2
left_child=1 2 3 7 -5 9 -7 -1 -3 -4
right_child=-2 8 5 4 -6 6 -8 -9 -10 -11
leaf_value=-0.014732531995293089 0.07783740973946715 -0.053267904556132444 -0.037195598485337017 0.0067082030763593887 0.0465102653727021 -0.009258541740951233 0.024620174480929024 0.022320577359118365 0 0
leaf_weight=364.59090907004429 26.181324536912143 112.50941817875719 135.839083923609 426.83347593864892 257.85832639771979 605.22588537208503 48.119795989361592 25.814315894036554 16.487725120852701 16.602558243786916
leaf_count=15303 186 89576 25664 23760 17092 37040 4100 3084 4144 3919
internal_value=-0.00137171 -0.00265074 0.000296644 0.00979152 0.022342 -0.0118676 -0.00610595 -0.0111908 -0.0483215 -0.0336919
internal_weight=2036.06 2009.88 1880.88 1075.1 684.692 805.787 653.346 390.405 128.997 152.442
internal_count=223868 223682 129962 59239 40852 70723 41140 18387 93720 29583
is_linear=0
shrinkage=0.0900493


Tree=40
num_leaves=17
num_cat=0
split_feature=56 96 7 28 21 9 116 108 4 115 127 11 5 128 113 98
split_gain=21.1156 9.68012 8.32373 6.31 6.08304 8.47655 4.96299 6.818 4.37942 3.22305 2.94727 1.67039 1.62622 1.49821 1.36893 0.752621
threshold=69.840000000000018 1.0000000180025095e-35 2889.7100000000005 10791.760000000002 1.0000000180025095e-35 509.61000000000007 3839.5800000000004 1.0000000180025095e-35 1.0000000180025095e-35 5494.4350000000004 3426.5000000000005 831.78500000000008 30.500000000000004 522.2650000000001 -591.99999999999989 1.0000000180025095e-35
decision_type=2 2 2 2 2 2 10 2 2 10 10 2 2 10 10 2
left_child=1 4 6 12 8 10 7 -3 -1 -4 -6 -5 -2 -8 -7 -14
right_child=3 2 9 11 5 14 13 -9 -10 -11 -12 -13 15 -15 -16 -17
leaf_value=0.02161555540011937 0.0033145004863473371 0.014968114763443568 0 -0.017827024256228122 -0.021981128454379471 0.0040205655781919564 -0.025862203298099302 0.090367655571731112 -0.0071715550079575743 -0.041470940514069576 0 -0.052915120624823196 -0.013696683127625751 0 -0.0090008833357596695 0
leaf_weight=116.40095737169031 22.275414624949917 597.84177262178855 90.812240207800642 78.844931450672448 266.33142115536612 308.12255777302198 18.533931483514607 11.204707201861309 39.995300489827059 20.928442035918124 22.609694039972965 60.748589960159734 228.08446668082615 52.792537361441646 74.848702912975568 19.818019733880647
leaf_count=2217 3316 47685 13120 29248 15214 12995 4008 1122 473 6375 1561 38701 27408 14053 4059 2313
internal_value=-0.00125135 0.00315687 0.0103943 -0.0196221 -0.00328334 -0.00738417 0.0143954 0.0171944 0.0116971 -0.0102907 -0.0190567 -0.0362873 -0.00940106 -0.00383336 0.000405528 -0.0121729
internal_weight=2030.19 1620.42 792.114 409.771 828.309 671.912 680.373 609.046 156.396 111.741 288.941 139.594 270.178 71.3265 382.971 247.902
internal_count=223868 122882 86363 100986 36519 33829 66868 48807 2690 19495 16775 67949 33037 18061 17054 29721
is_linear=0
shrinkage=0.0900493


Tree=41
num_leaves=12
num_cat=0
split_feature=52 133 116 133 33 4 118 148 108 21 21
split_gain=41.4207 11.4834 10.088 9.40562 7.49222 7.61221 2.214 1.28291 1.08648 0.522348 0.251483
threshold=33973.920000000006 8.0000000000000018 983.44500000000005 1.0000000180025095e-35 114574.79000000002 1.0000000180025095e-35 3952.1200000000003 7.0950000000000006 1.0000000180025095e-35 1.0000000180025095e-35 1.0000000180025095e-35
decision_type=2 10 10 8 2 2 10 10 2 2 2
left_child=1 2 4 7 5 -1 -4 8 9 -2 -8
right_child=3 -3 6 -5 -6 -7 10 -9 -10 -11 -12
leaf_value=0.0073416753567034747 0 0.060896145004641015 -0.025008119433052062 0 -0.035116808950391355 -0.012272640020166802 0 0 0 -0.057640953426011762 -0.0049354471864677648
leaf_weight=1431.4046013063053 2.3066885211737818 25.92097277007997 123.52338750398485 20.914657371700741 35.257012189831585 165.93927737150807 2.6546856253407887 5.6531827463768414 3.0894087745109564 127.49362142244354 82.986045113066211
leaf_count=70983 680 158 18852 3827 5171 2714 231 5713 2483 92735 20321
internal_value=-0.00117297 0.00239532 0.00131331 -0.0451769 0.00390423 0.00504397 -0.0168983 -0.0537778 -0.0556015 -0.0568477 -0.000371516
internal_weight=2027.14 1867.69 1841.77 159.458 1632.6 1597.34 209.164 138.543 132.89 129.8 85.6407
internal_count=223868 118430 118272 105438 78868 73697 39404 101611 95898 93415 20552
is_linear=0
shrinkage=0.0900493


Tree=42
num_leaves=10
num_cat=0
split_feature=33 56 4 131 2 111 116 108 111
split_gain=20.0193 18.6076 8.50331 8.88593 7.22863 3.78425 2.50021 2.33504 1.92728
threshold=62119.825000000004 70.495000000000019 1.5000000000000002 838.69500000000005 1.0000000180025095e-35 1.0000000180025095e-35 28375.490000000002 1.0000000180025095e-35 8.0000000000000018
decision_type=2 2 2 10 2 10 10 2 8
left_child=1 2 3 4 -1 -2 -5 8 -3
right_child=5 7 -4 6 -6 -7 -8 -9 -10
leaf_value=-0.00011555100730052465 -0.045334688153022051 -0.022255468631660669 -0.033603751853029197 -0.030198823573655144 0.013522867947975647 0 0 0.0071870335341862575 0
leaf_weight=355.16696122777648 84.918218753533438 244.60931460093707 35.659891245653853 53.399818677105941 1143.5523108070483 2.1222089506918556 27.198380286921747 6.7807845890056333 56.727466923824977
leaf_count=3119 27874 70957 938 12298 92440 104 7866 2181 5592
internal_value=0.000909365 0.00302779 0.00707565 0.00827458 0.0100245 -0.0407205 -0.0190011 -0.0168293 -0.0187293
internal_weight=2010.14 1923.09 1614.98 1579.32 1498.72 87.0404 80.5982 308.118 301.337
internal_count=223369 195391 116661 115723 95559 27978 20164 78730 76549
is_linear=0
shrinkage=0.0900493


Tree=43
num_leaves=12
num_cat=0
split_feature=133 33 39 56 16 94 115 98 137 22 143
split_gain=14.1498 29.3616 13.9289 9.96829 13.363 4.14691 2.49093 2.15207 3.17139 1.5786 0.492939
threshold=8.0000000000000018 14516.140000000001 117182.70000000001 3159.9850000000001 -12454.169999999998 1.0000000180025095e-35 28772.230000000003 1.0000000180025095e-35 1.0000000180025095e-35 5625.6150000000007 74416.62000000001
decision_type=10 2 2 2 2 2 8 2 8 2 8
left_child=1 2 3 4 -1 7 -5 8 -3 -4 -11
right_child=-2 5 9 6 -6 -7 -8 -9 -10 10 -12
leaf_value=0.032349662955980574 0.063991542857357753 0 0 -0.025330939575002372 0.0039266505219641293 0 0 0 -0.052668371868895419 -0.053100784653379765 0
leaf_weight=154.54008897335734 27.069535418879241 21.127069972979371 16.276703006122261 99.06909970153356 1480.0886739144335 16.613366890058387 27.423962424858473 15.014791548193896 106.03066292963922 36.474832717271056 12.752404678147284
leaf_count=4648 181 2197 1511 32114 118548 5548 6015 3219 31799 15979 1610
internal_value=0.00074558 0 0.00308218 0.00481221 0.00688248 -0.0371409 -0.0185937 -0.0421161 -0.0460125 -0.0366235 -0.0450304
internal_weight=2012.48 1985.41 1826.63 1761.12 1634.63 158.786 126.493 142.173 127.158 65.5039 49.2272
internal_count=223369 223188 180425 161325 123196 42763 38129 37215 33996 19100 17589
is_linear=0
shrinkage=0.0900493


Tree=44
num_leaves=12
num_cat=0
split_feature=102 85 4 118 16 22 134 111 96 81 60
split_gain=18.0386 12.1027 6.96621 5.54209 13.4629 5.12715 1.92974 1.63321 0.698548 0.536759 0.283123
threshold=1.5000000000000002 16832.550000000007 1.5000000000000002 5318.9250000000002 -19545.104999999996 67841.115000000005 129323.25000000001 8.0000000000000018 1.0000000180025095e-35 65296.195000000007 3977.4500000000003
decision_type=2 2 2 8 2 2 10 8 2 2 2
left_child=1 2 3 5 -5 -1 10 8 -8 -9 -3
right_child=-2 6 -4 4 -6 -7 7 9 -10 -11 -12
leaf_value=-0.0017212045623477635 0.088867962623624008 -0.033048129366879883 -0.034050837549834026 0.039372982018061671 0.0027504473854310834 -0.044895218569343032 -0.030581419166215856 0 -0.00051177348034769313 0.048319150874790315 0
leaf_weight=176.39042506326223 17.395831918052863 95.358151861175429 39.354696714202873 88.306321945332456 1474.7977829222218 29.647741253313143 19.197755372559186 3.7981195519678286 63.225780134904198 1.8424444235279223 1.9553264507558186
leaf_count=23383 921 28978 1502 3082 107300 13778 9020 943 32814 687 961
internal_value=0.000620587 -1.26284e-06 0.00204723 0.00310098 0.00510635 -0.0101076 -0.0220291 -0.00580948 -0.0126809 0.0202184 -0.0323606
internal_weight=2011.27 1993.87 1808.5 1769.14 1563.1 206.038 185.378 88.0641 82.4235 5.64056 97.3135
internal_count=223369 222448 149045 147543 110382 37161 73403 43464 41834 1630 29939
is_linear=0
shrinkage=0.0900493


Tree=45
num_leaves=17
num_cat=0
split_feature=56 22 2 52 113 52 94 125 111 96 6 108 108 108 21 4
split_gain=15.334 8.96419 16.1285 9.0184 7.69784 5.93023 5.17427 4.06277 3.2447 2.42375 2.19929 1.84567 1.39128 1.16327 0.894499 0.683
threshold=167.07500000000002 292.40000000000003 1.0000000180025095e-35 33973.920000000006 -773.99999999999989 169942.78500000003 1.0000000180025095e-35 -375.00999999999993 8.0000000000000018 1.0000000180025095e-35 59.500000000000007 1.0000000180025095e-35 1.0000000180025095e-35 1.0000000180025095e-35 1.0000000180025095e-35 1.0000000180025095e-35
decision_type=2 2 2 2 8 2 2 8 8 2 2 2 2 2 2 2
left_child=1 2 4 6 -1 13 12 -4 11 -8 -7 14 -3 -5 -2 -9
right_child=8 3 7 5 -6 10 9 15 -10 -11 -12 -13 -14 -15 -16 -17
leaf_value=0.0094273560257107005 0 -0.0039399713718513358 0 -0.047863610921503895 -0.017469867340998535 0.076007617442527015 0 0.021873062062061095 0 0.034863762690763078 0 0 0.026575168876428076 0 -0.025262135414371695 0.0063101276649317039
leaf_weight=126.37990474235266 3.7022832540096706 555.14661153173074 80.854040228179656 59.587951065856032 205.95872750319541 1.8899726388626712 9.4435010912129638 507.91419031855185 56.815183075028472 46.042753438698128 6.1997658894979395 6.2419755852315566 8.4117905570892599 1.1876712674857106 228.25598964450182 107.57142463937635
leaf_count=1459 442 45391 11048 38472 1172 1653 717 20340 7217 3835 6991 2360 1050 860 76650 3712
internal_value=0.000503222 0.00395966 0.00938973 -0.00357743 -0.00603563 -0.0341937 0 0.0173274 -0.0181806 0.0258168 0.00406738 -0.0227786 -0.00271396 -0.04577 -0.0244323 0.0198248
internal_weight=2011.6 1716.59 1028.68 687.91 332.339 68.8654 619.045 696.34 295.015 55.4863 8.08974 238.2 563.558 60.7756 231.958 615.486
internal_count=223369 136700 37731 98969 2631 47976 50993 35100 86669 4552 8644 79452 46441 39332 77092 24052
is_linear=0
shrinkage=0.0900493


Tree=46
num_leaves=16
num_cat=0
split_feature=50 52 153 133 2 4 4 60 58 133 133 112 98 21 111
split_gain=26.4836 74.9962 13.9784 12.6626 10.303 9.32762 5.33206 3.91406 2.82012 2.70149 1.99626 2.42061 0.733106 0.802603 0.219406
threshold=1.0000000180025095e-35 1.0000000180025095e-35 10469.025000000001 1.0000000180025095e-35 1.0000000180025095e-35 1.0000000180025095e-35 1.5000000000000002 1388.9800000000002 7330.6900000000014 1.0000000180025095e-35 8.0000000000000018 487035.35500000004 1.0000000180025095e-35 1.0000000180025095e-35 1.0000000180025095e-35
decision_type=2 2 10 8 2 2 2 2 2 8 10 10 2 2 8
left_child=1 2 4 12 5 -1 -6 8 9 -2 11 -4 13 -3 -5
right_child=7 3 10 14 6 -7 -8 -9 -10 -11 -12 -13 -14 -15 -16
leaf_value=0.0048637772907434759 -0.061836022966259278 0 -0.03855230366423526 0 0.016635282864589963 -0.032923366022752594 -0.018884487948320677 0 0 0 0 0 0 -0.056727253645347475 0.0084757487520881573
leaf_weight=294.05026633106172 70.371500081964768 3.3651361450320101 57.637685325171333 3.6821967383148175 1228.0136323728948 62.273708323016763 23.698777894489467 8.1305338981037476 14.502738073468207 9.1755429119802994 3.7002806067466727 18.023078942496795 13.365182795212602 179.14986307927757 23.54220736422576
leaf_count=2687 6224 760 10790 597 76480 380 788 3225 5250 172 27 5262 7732 99398 3597
internal_value=0.000465433 0.00306359 0.00975749 -0.0455436 0.0117572 -0.000702488 0.0156232 -0.0436752 -0.0490249 -0.05584 -0.0253214 -0.0297081 -0.0536811 -0.0558894 0
internal_weight=2012.68 1910.5 1687.4 223.105 1608.04 356.324 1251.71 102.18 94.0498 79.547 79.361 75.6608 195.88 182.515 27.2244
internal_count=223369 208498 96414 112084 80335 3067 77268 14871 11646 6396 16079 16052 107890 100158 4194
is_linear=0
shrinkage=0.0900493


Tree=47
num_leaves=16
num_cat=0
split_feature=17 22 33 74 118 11 26 4 33 7 153 152 151 148 94
split_gain=18.495 8.98362 8.24135 6.74714 7.17794 6.12762 10.3565 5.2682 8.86145 4.92463 4.67966 3.37593 3.26253 2.59019 1.30056
threshold=3.5000000000000004 5625.6150000000007 77359.095000000016 49.360000000000007 5318.9250000000002 669.60500000000013 1.0000000180025095e-35 1.0000000180025095e-35 27715.445000000003 115.50000000000001 780.04500000000007 1.5000000000000002 7.5000000000000009 54.440000000000005 1.0000000180025095e-35
decision_type=2 2 2 2 8 2 2 2 2 2 8 8 10 10 2
left_child=1 2 7 -2 -5 9 -7 8 -1 12 -11 -9 -3 -8 -4
right_child=3 5 14 4 -6 6 13 11 -10 10 -12 -13 -14 -15 -16
leaf_value=0.0080972267476006488 0 -0.028987042181728113 -0.038694423043182283 0 0.076845945409509675 0.038268497662801375 -0.032641907583250931 0.0054526720483941155 -0.038586516585953953 0.012656819638073059 -0.011292364485350804 -0.018109248244945475 0 0 0
leaf_weight=1140.2843479853473 14.690373285964595 78.402793738729088 41.199521087313769 8.2276181195920817 42.938072365534026 13.559979499084873 183.48193654604256 44.953416866599582 30.139187063003192 169.599359943124 95.061302989110118 126.9808761565946 16.119927847466897 3.9942957058665334 5.3018274909118182
leaf_count=47774 809 13181 10313 2300 6596 1097 89051 2612 5470 13539 18955 1678 6278 2201 1515
internal_value=0.000311932 -0.00108565 0.00256568 0.0469512 0.0621842 -0.0108418 -0.0236856 0.004138 0.00651189 -0.00247831 0.00252578 -0.00962516 -0.0205542 -0.0305227 -0.0333159
internal_weight=2014.93 1949.08 1388.86 65.8561 51.1657 560.22 201.036 1342.36 1170.42 359.183 264.661 171.934 94.5227 187.476 46.5013
internal_count=223369 213664 69362 9705 8896 144302 92349 57534 53244 51953 32494 4290 19459 91252 11828
is_linear=0
shrinkage=0.0900493


Tree=48
num_leaves=18
num_cat=0
split_feature=64 33 56 97 7 111 107 98 94 127 147 108 21 94 7 98 107
split_gain=15.1441 7.2062 7.69722 19.3344 6.09492 5.55619 4.38678 4.84716 4.28328 3.62554 2.08289 1.62981 1.46501 1.38418 1.14688 1.08672 0.309454
threshold=469.72500000000008 18768.715000000004 1.0000000180025095e-35 44.500000000000007 1207.4550000000002 1.0000000180025095e-35 172.50000000000003 1.0000000180025095e-35 1.0000000180025095e-35 3198.5000000000005 -22382.074999999997 1.0000000180025095e-35 1.0000000180025095e-35 1.0000000180025095e-35 3370.9700000000007 1.0000000180025095e-35 153.50000000000003
decision_type=2 2 2 2 2 8 2 2 2 10 8 2 2 2 2 2 2
left_child=1 2 3 8 9 12 7 11 -1 -4 -5 16 -3 -9 -6 -14 -2
right_child=6 5 4 10 14 -7 -8 13 -10 -11 -12 -13 15 -15 -16 -17 -18
leaf_value=0.0023514423399667115 -0.019028254421550206 0 -0.032134010666538364 0.075230944482492595 0.0087209311932822248 0 -0.045627604394627201 0 0.024781447186600233 0 0.026531233926237671 0 -0.047807268052090963 0.064706650101671648 -0.0083843623220785733 0 0
leaf_weight=1162.9241161425598 218.75025205971906 1.7310372723732133 93.997045480122324 29.935820203449111 101.39800604296033 64.485227724420838 50.498984842590289 19.772343353542968 79.439929779793601 26.22496859144303 78.611443069821689 5.1152078727027392 43.718126689578639 3.8071060256916089 27.121375245158561 6.4299894968862636 12.490352613909634
leaf_count=44087 56977 184 14229 6349 9427 6566 32886 5197 3085 4962 5634 1501 15837 730 6232 1504 8275
internal_value=-3.88343e-05 0.00307527 0.0048531 0.00769771 -0.0089449 -0.0177314 -0.0184913 -0.0114863 0.00413289 -0.0238231 0.0443242 -0.0164029 -0.0393018 0.0199173 0.00195829 -0.0427543 -0.0182161
internal_weight=2026.45 1716.02 1599.65 1350.91 248.741 116.364 310.434 259.935 1242.36 120.222 108.547 236.356 51.8792 23.5794 128.519 50.1481 231.241
internal_count=223662 118096 94005 59155 34850 24091 105566 72680 47172 19191 11983 66753 17525 5927 15659 17341 65252
is_linear=0
shrinkage=0.0900493


Tree=49
num_leaves=15
num_cat=0
split_feature=52 145 97 2 133 72 16 56 116 109 94 141 56 21
split_gain=55.903 20.6575 10.7183 9.87808 8.81611 20.9817 8.49541 7.94347 4.92349 4.03656 3.57319 4.64195 2.91495 1.44323
threshold=1.0000000180025095e-35 -1.0000000180025095e-35 8.5000000000000018 1.0000000180025095e-35 1.0000000180025095e-35 1.0000000180025095e-35 -12454.169999999998 1.0000000180025095e-35 983.44500000000005 1.0000000180025095e-35 1.0000000180025095e-35 3.2750000000000004 2405.5300000000002 1.0000000180025095e-35
decision_type=2 8 2 2 8 2 2 2 10 2 2 10 2 2
left_child=1 2 6 13 5 -2 -1 8 -5 -8 11 -4 -9 -3
right_child=4 3 10 7 -6 -7 9 12 -10 -11 -12 -13 -14 -15
leaf_value=0.050624749817206098 -0.058869350783512457 -0.00028797637847711782 0.032210313338875009 0.010605308562218295 0 0.046740057279461747 -0.0055707952791393001 0 -0.0098681021935476329 0.01545776562943418 0.074131961012253667 0 -0.024132583481403441 -0.020676684272787155
leaf_weight=33.202331999549642 178.13327100005699 82.226777510717511 167.24795810657088 671.7756025196868 28.01752554543782 11.467010736640075 176.76862304867245 139.05181536392774 89.847628372604959 114.9411512624356 29.860505913035013 17.029205362487119 87.848747888929211 196.42522517871112
leaf_count=786 110019 526 16254 27797 4207 2583 3882 11901 12571 7524 2275 4130 17490 1717
internal_value=0 0.00502466 0.0198078 -0.000959138 -0.0431612 -0.0501103 0.00780931 0.00292416 0.00764955 0.00136844 0.0359929 0.0271909 -0.0111256 -0.0161285
internal_weight=2023.84 1806.23 539.05 1267.18 217.618 189.6 324.912 988.524 761.623 291.71 214.138 184.277 226.901 278.652
internal_count=223662 106853 34851 72002 116809 112602 12192 69759 40368 11406 22659 20384 29391 2243
is_linear=0
shrinkage=0.0900493


Tree=50
num_leaves=11
num_cat=0
split_feature=25 98 21 20 131 7 96 81 79 58
split_gain=9.41642 11.1189 10.0802 7.61966 8.48611 7.27139 5.71271 1.78665 1.5883 0.980159
threshold=19905.785000000003 1.0000000180025095e-35 1.0000000180025095e-35 122886.71500000001 205.27500000000001 690.58500000000015 1.0000000180025095e-35 14076.655000000001 234.46000000000001 463.43500000000006
decision_type=2 2 2 2 10 2 2 2 2 2
left_child=1 3 -3 4 5 -1 -4 -2 -8 -6
right_child=7 2 6 -5 9 -7 8 -9 -10 -11
leaf_value=-0.0037897969573018352 -0.042288480500532299 0.081508158228645627 -0.020900571522544889 -0.033984243318190083 -0.029552655034461039 0.0082437148998491735 0.027908922825548473 -0.0083401631756061124 0 -0.0038250010435783438
leaf_weight=703.39275102948886 44.591135210968787 23.663994433940388 22.80181306094164 51.948702938650968 73.359784520464018 881.27758503513178 74.005789106362499 77.225524670444429 4.9422420116025014 66.706696233159164
leaf_count=45103 25267 473 1228 11892 11344 49835 10169 42483 1128 24740
internal_value=-1.32193e-05 0.00134761 0.0271711 -0.00026588 0.000539458 0.0026493 0.00979972 -0.0243412 0.0238798 -0.020293
internal_weight=2023.92 1902.1 125.414 1776.69 1724.74 1584.67 101.75 121.817 78.948 140.066
internal_count=223662 155912 12998 142914 131022 94938 12525 67750 11297 36084
is_linear=0
shrinkage=0.0900493


Tree=51
num_leaves=12
num_cat=0
split_feature=108 127 22 64 96 133 25 81 137 127 149
split_gain=8.99988 19.0629 6.89715 8.32819 10.857 7.78271 4.54563 5.56687 4.00427 2.75074 0.864021
threshold=1.0000000180025095e-35 139.50000000000003 94523.215000000011 2180.9250000000006 1.0000000180025095e-35 8.0000000000000018 18094.610000000004 79733.180000000008 10967.435000000003 1924.5000000000002 3046.5000000000005
